booster[0]:
0:[Participants_Count<1] yes=1,no=2,missing=1
	1:[first_response<1] yes=3,no=4,missing=3
		3:[Contributor<1] yes=5,no=6,missing=5
			5:[Contributor_Num<2025] yes=7,no=8,missing=7
				7:[Forks_Count<573] yes=11,no=12,missing=11
					11:[Wait_Time<0.0213888884] yes=19,no=20,missing=19
						19:leaf=-0.0352941193
						20:leaf=0.253231943
					12:[Churn_Average<64.3646545] yes=21,no=22,missing=21
						21:leaf=0.0288329516
						22:leaf=-0.148277953
				8:[Watchers<608] yes=13,no=14,missing=13
					13:[Wait_Time<0.0003587963] yes=23,no=24,missing=23
						23:leaf=-0.075000003
						24:leaf=0.535676062
					14:[Followers<28] yes=25,no=26,missing=25
						25:leaf=0.0565130301
						26:leaf=0.381818205
			6:[Project_Accept_Rate<0.207868442] yes=9,no=10,missing=9
				9:[Workload<156] yes=15,no=16,missing=15
					15:[Accept_Num<6] yes=27,no=28,missing=27
						27:leaf=0.0406299233
						28:leaf=0.321818203
					16:[Deletions<85] yes=29,no=30,missing=29
						29:leaf=-0.129170552
						30:leaf=0.342857182
				10:[Team_Size<5] yes=17,no=18,missing=17
					17:[User_Accept_Rate<0.822723627] yes=31,no=32,missing=31
						31:leaf=-0.10321679
						32:leaf=0.417082816
					18:[Mergeable<1] yes=33,no=34,missing=33
						33:leaf=0.542476892
						34:leaf=-0.194754109
		4:leaf=-0.199859783
	2:leaf=-0.199997529
booster[1]:
0:[Participants_Count<1] yes=1,no=2,missing=1
	1:[Contributor<1] yes=3,no=4,missing=3
		3:[Contributor_Num<2025] yes=5,no=6,missing=5
			5:[first_response<1] yes=9,no=10,missing=9
				9:[Forks_Count<573] yes=17,no=18,missing=17
					17:[Wait_Time<0.0389120355] yes=31,no=32,missing=31
						31:leaf=0.405405432
						32:leaf=0.125806451
					18:[Churn_Average<64.3646545] yes=33,no=34,missing=33
						33:leaf=0.363844424
						34:leaf=0.546344459
				10:leaf=-0.192344502
			6:[Watchers<608] yes=11,no=12,missing=11
				11:[Wait_Time<0.0003587963] yes=19,no=20,missing=19
					19:leaf=0.375
					20:[Public_Repos<56] yes=35,no=36,missing=35
						35:leaf=-0.145699248
						36:leaf=0.268965542
				12:[Followers<53] yes=21,no=22,missing=21
					21:[first_response<1] yes=37,no=38,missing=37
						37:leaf=0.320179373
						38:leaf=-0.189261749
					22:[Commits_Average<2.80952787] yes=39,no=40,missing=39
						39:leaf=-0.102237523
						40:leaf=0.16853933
		4:[Project_Accept_Rate<0.207868442] yes=7,no=8,missing=7
			7:[Workload<156] yes=13,no=14,missing=13
				13:[Comments_Per_Closed_PR<2.52567387] yes=23,no=24,missing=23
					23:[Forks_Count<24] yes=41,no=42,missing=41
						41:leaf=-0.0857142955
						42:leaf=0.374729246
					24:[Contributions<5] yes=43,no=44,missing=43
						43:leaf=0.305027932
						44:leaf=-0.0481283441
				14:[Deletions<85] yes=25,no=26,missing=25
					25:[Contributions<418] yes=45,no=46,missing=45
						45:leaf=0.538763523
						46:leaf=0.194366217
					26:[X1_6<10.913969] yes=47,no=48,missing=47
						47:leaf=-0.168000013
						48:leaf=0.230769247
			8:[Team_Size<5] yes=15,no=16,missing=15
				15:[User_Accept_Rate<0.822723627] yes=27,no=28,missing=27
					27:[Forks_Count<142] yes=49,no=50,missing=49
						49:leaf=-0.00618556701
						50:leaf=0.553234637
					28:[Stars<11765] yes=51,no=52,missing=51
						51:leaf=-0.118876763
						52:leaf=0.398601413
				16:[Mergeable<1] yes=29,no=30,missing=29
					29:[Project_Accept_Rate<0.898801386] yes=53,no=54,missing=53
						53:leaf=-0.12678127
						54:leaf=-0.182725608
					30:[first_response<1] yes=55,no=56,missing=55
						55:leaf=0.584262311
						56:leaf=-0.105882362
	2:leaf=-0.199997529
booster[2]:
0:[Participants_Count<1] yes=1,no=2,missing=1
	1:[first_response<1] yes=3,no=4,missing=3
		3:leaf=-0.199986979
		4:[Open_Issues<25] yes=7,no=8,missing=7
			7:[latency_after_first_response<38.75] yes=13,no=14,missing=13
				13:[Files_Changed<48] yes=25,no=26,missing=25
					25:[Deletions_Per_Week<-7887.22021] yes=49,no=50,missing=49
						49:leaf=0.264335692
						50:leaf=0.531947076
					26:[Followers<643] yes=51,no=52,missing=51
						51:leaf=-0.0967741981
						52:leaf=0.360000014
				14:[Forks_Count<344] yes=27,no=28,missing=27
					27:[Project_Accept_Rate<0.57504046] yes=53,no=54,missing=53
						53:leaf=0.0844513401
						54:leaf=0.471755743
					28:[Project_Accept_Rate<0.824598193] yes=55,no=56,missing=55
						55:leaf=-0.140259743
						56:leaf=0.286956549
			8:[first_response_time<-5400.4585] yes=15,no=16,missing=15
				15:[Contributions<1066] yes=29,no=30,missing=29
					29:leaf=-0.192660555
					30:[Closed_Num_Rate<0.198313922] yes=57,no=58,missing=57
						57:leaf=0.462857157
						58:leaf=0.0352941193
				16:[File_Touched_Average<13.0602865] yes=31,no=32,missing=31
					31:[Files_Changed<771] yes=59,no=60,missing=59
						59:leaf=0.468500823
						60:leaf=-0.16097562
					32:[latency_after_first_response<322.908325] yes=61,no=62,missing=61
						61:leaf=0.43575421
						62:leaf=0.249635041
	2:[Project_Accept_Rate<0.510389447] yes=5,no=6,missing=5
		5:[Project_Accept_Rate<0.280329406] yes=9,no=10,missing=9
			9:[Contributions<1493] yes=17,no=18,missing=17
				17:[Contributions<33] yes=33,no=34,missing=33
					33:[Project_Accept_Rate<0.233701259] yes=63,no=64,missing=63
						63:leaf=-0.177250326
						64:leaf=-0.091655679
					34:[Accept_Num<77] yes=65,no=66,missing=65
						65:leaf=-0.0616822429
						66:leaf=0.156371981
				18:[Accept_Num<17] yes=35,no=36,missing=35
					35:[Comments_Per_Merged_PR<2.46139002] yes=67,no=68,missing=67
						67:leaf=-0.154285729
						68:leaf=0.159183681
					36:[latency_after_first_response<0.0583333336] yes=69,no=70,missing=69
						69:leaf=0.0503816828
						70:leaf=0.472091705
			10:[Contributor<1] yes=19,no=20,missing=19
				19:[Sunday<6.69230747] yes=37,no=38,missing=37
					37:[latency_after_first_response<-271.366669] yes=71,no=72,missing=71
						71:leaf=0.237735853
						72:leaf=-0.166019872
					38:[Comments_Per_Merged_PR<2.36288357] yes=73,no=74,missing=73
						73:leaf=-0.00324324355
						74:leaf=0.280788183
				20:[latency_after_first_response<0.0250000022] yes=39,no=40,missing=39
					39:[latency_after_first_response<-0.00833333377] yes=75,no=76,missing=75
						75:leaf=0.265691489
						76:leaf=-0.199087813
					40:[Comments_Per_Merged_PR<1.31938672] yes=77,no=78,missing=77
						77:leaf=0.0364814587
						78:leaf=0.290960193
		6:[Contributor<1] yes=11,no=12,missing=11
			11:[Project_Size<182088.5] yes=21,no=22,missing=21
				21:[comments_reviews_words_count<3] yes=41,no=42,missing=41
					41:[Deletions_Per_Week<-2739.59424] yes=79,no=80,missing=79
						79:leaf=0.393611789
						80:leaf=-0.00387096778
					42:[Closed_Num_Rate<0.912878811] yes=81,no=82,missing=81
						81:leaf=-0.128092542
						82:leaf=0.10064517
				22:[Wait_Time<22.7723541] yes=43,no=44,missing=43
					43:[User_Accept_Rate<0.43095237] yes=83,no=84,missing=83
						83:leaf=0.106076054
						84:leaf=0.343860865
					44:[Comments_Count<24] yes=85,no=86,missing=85
						85:leaf=-0.122193784
						86:leaf=0.126760572
			12:[Wait_Time<32.7450752] yes=23,no=24,missing=23
				23:[Mergeable<1] yes=45,no=46,missing=45
					45:[Additions_Per_Week<11050.0605] yes=87,no=88,missing=87
						87:leaf=0.385694444
						88:leaf=0.499622792
					46:[Merge_Latency<10.9355869] yes=89,no=90,missing=89
						89:leaf=-0.199547902
						90:leaf=0.0352941193
				24:[Wait_Time<88.7634201] yes=47,no=48,missing=47
					47:[Comments_Count<16] yes=91,no=92,missing=91
						91:leaf=0.168416128
						92:leaf=0.356336743
					48:[Comments_Count<24] yes=93,no=94,missing=93
						93:leaf=-0.0109908124
						94:leaf=0.158786625
booster[3]:
0:[Project_Accept_Rate<0.478123784] yes=1,no=2,missing=1
	1:[Comments_Count<1] yes=3,no=4,missing=3
		3:[first_response<1] yes=7,no=8,missing=7
			7:[comments_reviews_words_count<15] yes=15,no=16,missing=15
				15:leaf=-0.199875593
				16:[Project_Accept_Rate<0.0790279806] yes=31,no=32,missing=31
					31:[Contributions<393] yes=61,no=62,missing=61
						61:leaf=0.462857157
						62:leaf=-0.075000003
					32:[Wait_Time<0.0825578719] yes=63,no=64,missing=63
						63:leaf=0.0545454584
						64:leaf=-0.182608694
			8:[Merge_Latency<1.43665981] yes=17,no=18,missing=17
				17:[Forks_Count<344] yes=33,no=34,missing=33
					33:[Project_Accept_Rate<0.357770085] yes=65,no=66,missing=65
						65:leaf=0.0992126018
						66:leaf=0.330259383
					34:[Project_Age<955.494202] yes=67,no=68,missing=67
						67:leaf=0.553689003
						68:leaf=0.0580645166
				18:[first_response_time<-419.716675] yes=35,no=36,missing=35
					35:[Contributions<1130] yes=69,no=70,missing=69
						69:leaf=0.574869096
						70:leaf=0.176470608
					36:[Project_Accept_Rate<0.204704642] yes=71,no=72,missing=71
						71:leaf=0.41793105
						72:leaf=0.00104785198
		4:[Project_Accept_Rate<0.281801879] yes=9,no=10,missing=9
			9:[Contributions<460] yes=19,no=20,missing=19
				19:[Contributions<33] yes=37,no=38,missing=37
					37:[Project_Accept_Rate<0.233701259] yes=73,no=74,missing=73
						73:leaf=0.577960432
						74:leaf=0.501221597
					38:[Accept_Num<77] yes=75,no=76,missing=75
						75:leaf=0.494402528
						76:leaf=0.290676415
				20:[User_Accept_Rate<0.758333325] yes=39,no=40,missing=39
					39:[Closed_Num<117] yes=77,no=78,missing=77
						77:leaf=0.424111038
						78:leaf=0.178661495
					40:[latency_after_first_response<0.0583333336] yes=79,no=80,missing=79
						79:leaf=0.438655496
						80:leaf=-0.0675767958
			10:[Contributor<1] yes=21,no=22,missing=21
				21:[Sunday<6.69230747] yes=41,no=42,missing=41
					41:[latency_after_first_response<-41.0666656] yes=81,no=82,missing=81
						81:leaf=0.216000021
						82:leaf=0.559841812
					42:[Project_Age<1217.2644] yes=83,no=84,missing=83
						83:leaf=0.393802851
						84:leaf=-0.120000005
				22:[Comments_Per_Merged_PR<1.31938672] yes=43,no=44,missing=43
					43:[comments_reviews_words_count<2] yes=85,no=86,missing=85
						85:leaf=0.172762647
						86:leaf=0.41184476
					44:[Mergeable<1] yes=87,no=88,missing=87
						87:leaf=0.145319477
						88:leaf=0.596205533
	2:[Wait_Time<25.4976501] yes=5,no=6,missing=5
		5:[Contributor<1] yes=11,no=12,missing=11
			11:[comments_reviews_words_count<3] yes=23,no=24,missing=23
				23:[first_response_time<-1.51666665] yes=45,no=46,missing=45
					45:[Forks_Count<387] yes=89,no=90,missing=89
						89:leaf=-0
						90:leaf=0.566433549
					46:[comments_reviews_words_count<1] yes=91,no=92,missing=91
						91:leaf=-0.192773566
						92:leaf=0.0277097076
				24:[Project_Size<182088.5] yes=47,no=48,missing=47
					47:[Contributions<2] yes=93,no=94,missing=93
						93:leaf=0.517996371
						94:leaf=-0.0229007639
					48:[User_Accept_Rate<0.43095237] yes=95,no=96,missing=95
						95:leaf=0.30621022
						96:leaf=0.0684810355
			12:[comments_reviews_words_count<3] yes=25,no=26,missing=25
				25:[first_response_time<-4858.9751] yes=49,no=50,missing=49
					49:[Contributions<1066] yes=97,no=98,missing=97
						97:leaf=0.559459448
						98:leaf=-0.0339622647
					50:[comments_reviews_words_count<2] yes=99,no=100,missing=99
						99:leaf=-0.193203315
						100:leaf=-0.129884675
				26:[Additions_Per_Week<11050.0605] yes=51,no=52,missing=51
					51:[Project_Accept_Rate<0.66012001] yes=101,no=102,missing=101
						101:leaf=0.111890472
						102:leaf=-0.0281181969
					52:[Mergeable<1] yes=103,no=104,missing=103
						103:leaf=-0.0943253413
						104:leaf=0.597345173
		6:[Wait_Time<85.2709351] yes=13,no=14,missing=13
			13:[Contributor<1] yes=27,no=28,missing=27
				27:[comments_reviews_words_count<3] yes=53,no=54,missing=53
					53:[first_response_time<1295.9917] yes=105,no=106,missing=105
						105:leaf=0.360000014
						106:leaf=-0.0939759091
					54:[Comments_Count<21] yes=107,no=108,missing=107
						107:leaf=0.530529797
						108:leaf=0.253012061
				28:[Comments_Count<16] yes=55,no=56,missing=55
					55:[Mergeable<1] yes=109,no=110,missing=109
						109:leaf=0.187998772
						110:leaf=0.588819921
					56:[Label_Count<4] yes=111,no=112,missing=111
						111:leaf=0.0981525108
						112:leaf=-0.0503225848
			14:[Contributor<1] yes=29,no=30,missing=29
				29:[Participants_Count<1] yes=57,no=58,missing=57
					57:leaf=-0.157894745
					58:[Assignees_Count<6] yes=113,no=114,missing=113
						113:leaf=0.579077899
						114:leaf=0.0352941193
				30:[Comments_Count<18] yes=59,no=60,missing=59
					59:[comments_reviews_words_count<3] yes=115,no=116,missing=115
						115:leaf=-0.120000005
						116:leaf=0.419830501
					60:[latency_after_first_response<382680.25] yes=117,no=118,missing=117
						117:leaf=0.21911177
						118:leaf=0.441401273
booster[4]:
0:[Participants_Count<1] yes=1,no=2,missing=1
	1:[first_response<1] yes=3,no=4,missing=3
		3:[User_Accept_Rate<0.494185269] yes=5,no=6,missing=5
			5:[Contributor_Num<1993] yes=7,no=8,missing=7
				7:[Comments_Per_Merged_PR<1.84974802] yes=11,no=12,missing=11
					11:[Contributor<1] yes=19,no=20,missing=19
						19:leaf=-0.061255727
						20:leaf=0.229347438
					12:[User_Accept_Rate<0.258661866] yes=21,no=22,missing=21
						21:leaf=-0.103741929
						22:leaf=0.1120952
				8:[Contributor<1] yes=13,no=14,missing=13
					13:[Followers<58] yes=23,no=24,missing=23
						23:leaf=0.0547300763
						24:leaf=0.298608094
					14:[File_Touched_Average<11.1292276] yes=25,no=26,missing=25
						25:leaf=0.301526755
						26:leaf=-0.0517598912
			6:[Wednesday<4.08653831] yes=9,no=10,missing=9
				9:[Contributions<35] yes=15,no=16,missing=15
					15:[Workload<118] yes=27,no=28,missing=27
						27:leaf=0.099637188
						28:leaf=-0.100302018
					16:[Wait_Time<6.16870928] yes=29,no=30,missing=29
						29:leaf=0.293347299
						30:leaf=-0.0237934757
				10:[Contributor_Num<1205] yes=17,no=18,missing=17
					17:[Comments_Per_Closed_PR<3.39843988] yes=31,no=32,missing=31
						31:leaf=0.0379783697
						32:leaf=-0.183109924
					18:[Mergeable<1] yes=33,no=34,missing=33
						33:leaf=0.334712476
						34:leaf=-0.18087104
		4:leaf=-0.18640396
	2:leaf=-0.186780095
booster[5]:
0:[Participants_Count<1] yes=1,no=2,missing=1
	1:[Contributor_Num<1993] yes=3,no=4,missing=3
		3:[User_Accept_Rate<0.5008834] yes=5,no=6,missing=5
			5:[Comments_Per_Merged_PR<1.85364139] yes=9,no=10,missing=9
				9:[Contributor<1] yes=17,no=18,missing=17
					17:[first_response<1] yes=33,no=34,missing=33
						33:leaf=0.298072338
						34:leaf=-0.160193816
					18:[first_response_time<16.0499992] yes=35,no=36,missing=35
						35:leaf=0.174786597
						36:leaf=-0.0232165083
				10:[Stars<74542] yes=19,no=20,missing=19
					19:[first_response<1] yes=37,no=38,missing=37
						37:leaf=0.31586799
						38:leaf=-0.189591959
					20:[Contributor<1] yes=39,no=40,missing=39
						39:leaf=0.305293322
						40:leaf=-0.0574531741
			6:[Contributions<28] yes=11,no=12,missing=11
				11:[Project_Size<118123.5] yes=21,no=22,missing=21
					21:[Commits_Average<4.4827075] yes=41,no=42,missing=41
						41:leaf=0.312179595
						42:leaf=-0.0767846555
					22:[Comments_Per_Merged_PR<2.61474514] yes=43,no=44,missing=43
						43:leaf=-0.0527175032
						44:leaf=0.145305529
				12:[Prev_PRs<961] yes=23,no=24,missing=23
					23:[Wait_Time<52.9515305] yes=45,no=46,missing=45
						45:leaf=-0.128711879
						46:leaf=0.408476502
					24:[Forks_Count<2238] yes=47,no=48,missing=47
						47:leaf=0.656197011
						48:leaf=0.0722621679
		4:[Contributor<1] yes=7,no=8,missing=7
			7:[Language<5] yes=13,no=14,missing=13
				13:[Followers<811] yes=25,no=26,missing=25
					25:[first_response<1] yes=49,no=50,missing=49
						49:leaf=0.236086085
						50:leaf=-0.175118148
					26:[Comments_Per_Merged_PR<1.80974507] yes=51,no=52,missing=51
						51:leaf=-0.117843576
						52:leaf=0.126193017
				14:[Comments_Per_Merged_PR<3.05989552] yes=27,no=28,missing=27
					27:[Prev_PRs<2] yes=53,no=54,missing=53
						53:leaf=0.0869357884
						54:leaf=-0.132805154
					28:[Additions<2847] yes=55,no=56,missing=55
						55:leaf=0.247166514
						56:leaf=-0.134314343
			8:[Mergeable<1] yes=15,no=16,missing=15
				15:[Language<5] yes=29,no=30,missing=29
					29:[User_Accept_Rate<0.614809215] yes=57,no=58,missing=57
						57:leaf=-0.0706560835
						58:leaf=-0.134614825
					30:[Project_Accept_Rate<0.146230444] yes=59,no=60,missing=59
						59:leaf=0.132010773
						60:leaf=-0.162226781
				16:[first_response<1] yes=31,no=32,missing=31
					31:leaf=0.351490766
					32:leaf=-0.0962791964
	2:leaf=-0.186780095
booster[6]:
0:[Participants_Count<1] yes=1,no=2,missing=1
	1:[first_response<1] yes=3,no=4,missing=3
		3:leaf=-0.186097801
		4:[Open_Issues<27] yes=7,no=8,missing=7
			7:[latency_after_first_response<38.75] yes=13,no=14,missing=13
				13:[Additions<10473] yes=25,no=26,missing=25
					25:[Closed_Num_Rate<0.412878782] yes=49,no=50,missing=49
						49:leaf=0.337765843
						50:leaf=0.213626727
					26:leaf=-0.158466786
				14:[Forks_Count<344] yes=27,no=28,missing=27
					27:[Merge_Latency<1.23363328] yes=51,no=52,missing=51
						51:leaf=0.0511362553
						52:leaf=0.214588374
					28:[Project_Accept_Rate<0.824598193] yes=53,no=54,missing=53
						53:leaf=-0.112302504
						54:leaf=0.229124114
			8:[latency_after_first_response<10862.958] yes=15,no=16,missing=15
				15:[Commits_PR<298] yes=29,no=30,missing=29
					29:[File_Touched_Average<12.1918621] yes=55,no=56,missing=55
						55:leaf=0.29785949
						56:leaf=0.220428556
					30:[File_Touched_Average<2.69492388] yes=57,no=58,missing=57
						57:leaf=0.031706892
						58:leaf=-0.174793601
				16:[Contributions<1203] yes=31,no=32,missing=31
					31:[Project_Accept_Rate<0.727674603] yes=59,no=60,missing=59
						59:leaf=-0.181899413
						60:leaf=0.0374183208
					32:[Closed_Num_Rate<0.198313922] yes=61,no=62,missing=61
						61:leaf=0.281462431
						62:leaf=0.00694251433
	2:[Project_Accept_Rate<0.510389447] yes=5,no=6,missing=5
		5:[Project_Accept_Rate<0.255797148] yes=9,no=10,missing=9
			9:[Contributions<460] yes=17,no=18,missing=17
				17:[Contributions<20] yes=33,no=34,missing=33
					33:[Wednesday<5.02884579] yes=63,no=64,missing=63
						63:leaf=-0.164043516
						64:leaf=-0.0165409595
					34:[Comments_Count<1] yes=65,no=66,missing=65
						65:leaf=0.265779346
						66:leaf=-0.0787641555
				18:[Accept_Num<21] yes=35,no=36,missing=35
					35:[latency_after_first_response<-0.108333334] yes=67,no=68,missing=67
						67:leaf=0.385591954
						68:leaf=-0.0491353944
					36:[Following<2] yes=69,no=70,missing=69
						69:leaf=0.296334237
						70:leaf=-0.0251933914
			10:[Contributor<1] yes=19,no=20,missing=19
				19:[Sunday<6.69230747] yes=37,no=38,missing=37
					37:[latency_after_first_response<-48.7833328] yes=71,no=72,missing=71
						71:leaf=0.161044434
						72:leaf=-0.150852621
					38:[Closed_Num_Rate<0.683750033] yes=73,no=74,missing=73
						73:leaf=-0.000288605137
						74:leaf=0.227772191
				20:[latency_after_first_response<0.0250000022] yes=39,no=40,missing=39
					39:[latency_after_first_response<-0.00833333377] yes=75,no=76,missing=75
						75:leaf=0.193950519
						76:leaf=-0.191431925
					40:[Comments_Per_Merged_PR<1.31938672] yes=77,no=78,missing=77
						77:leaf=0.0255112015
						78:leaf=0.200791091
		6:[Contributor<1] yes=11,no=12,missing=11
			11:[Project_Size<182088.5] yes=21,no=22,missing=21
				21:[latency_after_first_response<-0.0250000022] yes=41,no=42,missing=41
					41:[latency_after_first_response<-1.47500002] yes=79,no=80,missing=79
						79:leaf=0.00605935929
						80:leaf=0.350784212
					42:[Closed_Num_Rate<0.912878811] yes=81,no=82,missing=81
						81:leaf=-0.109893426
						82:leaf=0.111223333
				22:[Tuesday<33.490387] yes=43,no=44,missing=43
					43:[Stars<15844] yes=83,no=84,missing=83
						83:leaf=0.28832534
						84:leaf=0.0852779225
					44:[User_Accept_Rate<0.760434747] yes=85,no=86,missing=85
						85:leaf=-0.0235342775
						86:leaf=0.20380868
			12:[latency_after_first_response<30016.4668] yes=23,no=24,missing=23
				23:[User_Accept_Rate<0.642433047] yes=45,no=46,missing=45
					45:[Project_Accept_Rate<0.666968584] yes=87,no=88,missing=87
						87:leaf=0.177239001
						88:leaf=0.258759469
					46:[Mergeable<1] yes=89,no=90,missing=89
						89:leaf=0.3107678
						90:leaf=-0.189035639
				24:[latency_after_first_response<122577.531] yes=47,no=48,missing=47
					47:[Comments_Count<11] yes=91,no=92,missing=91
						91:leaf=0.0973569527
						92:leaf=0.22103256
					48:[Comments_Count<18] yes=93,no=94,missing=93
						93:leaf=-0.0265827309
						94:leaf=0.101197399
booster[7]:
0:[comments_reviews_words_count<3] yes=1,no=2,missing=1
	1:[Language<7] yes=3,no=4,missing=3
		3:[first_response_time<-595.916687] yes=7,no=8,missing=7
			7:[Project_Accept_Rate<0.812292159] yes=15,no=16,missing=15
				15:[File_Touched_Average<16.1954193] yes=31,no=32,missing=31
					31:leaf=0.36970228
					32:[Closed_Num_Rate<0.245609343] yes=63,no=64,missing=63
						63:leaf=-0.113372132
						64:leaf=0.216905624
				16:[Comments_Per_Closed_PR<4.03400993] yes=33,no=34,missing=33
					33:leaf=-0.164567679
					34:leaf=0.232647508
			8:[latency_after_first_response<0.0250000022] yes=17,no=18,missing=17
				17:[latency_after_first_response<-0.00833333377] yes=35,no=36,missing=35
					35:[Project_Accept_Rate<0.229312629] yes=65,no=66,missing=65
						65:leaf=0.180297181
						66:leaf=-0.149307355
					36:[latency_after_first_response<0.00833333377] yes=67,no=68,missing=67
						67:leaf=0.48927629
						68:leaf=0.0472623073
				18:[Wednesday<3.18269253] yes=37,no=38,missing=37
					37:[Participants_Count<1] yes=69,no=70,missing=69
						69:leaf=-0.171478972
						70:leaf=0.266825408
					38:[Participants_Count<1] yes=71,no=72,missing=71
						71:leaf=-0.185641214
						72:leaf=-0.150835723
		4:[Project_Age<951.153748] yes=9,no=10,missing=9
			9:[first_response<1] yes=19,no=20,missing=19
				19:[Comments_Count<1] yes=39,no=40,missing=39
					39:leaf=-0.183017001
					40:[Project_Age<460.547211] yes=73,no=74,missing=73
						73:leaf=0.326978534
						74:leaf=-0.00277257082
				20:[Comments_Per_Merged_PR<1.263906] yes=41,no=42,missing=41
					41:[latency_after_first_response<1594.16675] yes=75,no=76,missing=75
						75:leaf=0.179581791
						76:leaf=0.332901031
					42:[Close_Latency<2.97480345] yes=77,no=78,missing=77
						77:leaf=0.215562835
						78:leaf=0.343776554
			10:[File_Touched_Average<13.009758] yes=21,no=22,missing=21
				21:[File_Touched_Average<10.2824049] yes=43,no=44,missing=43
					43:[X1_2<-12.9769783] yes=79,no=80,missing=79
						79:leaf=-0.122965612
						80:leaf=-0.000173776003
					44:[Commits_Average<2.08462334] yes=81,no=82,missing=81
						81:leaf=-0.00281905942
						82:leaf=-0.167524561
				22:[latency_after_first_response<280.766663] yes=45,no=46,missing=45
					45:[Deletions<5] yes=83,no=84,missing=83
						83:leaf=0.00534076011
						84:leaf=-0.123041749
					46:[File_Touched_Average<15.1940832] yes=85,no=86,missing=85
						85:leaf=0.18450214
						86:leaf=-0.0407318696
	2:[Project_Accept_Rate<0.659397423] yes=5,no=6,missing=5
		5:[Contributions<29] yes=11,no=12,missing=11
			11:[Saturday<4.36538458] yes=23,no=24,missing=23
				23:[Comments_Per_Closed_PR<11.549469] yes=47,no=48,missing=47
					47:[latency_after_first_response<0.0416666679] yes=87,no=88,missing=87
						87:leaf=0.359391093
						88:leaf=0.284005105
					48:[Contributor<1] yes=89,no=90,missing=89
						89:leaf=0.29524532
						90:leaf=0.0341093801
				24:[Contributor<1] yes=49,no=50,missing=49
					49:[Closed_Num_Rate<0.912878811] yes=91,no=92,missing=91
						91:leaf=0.301889509
						92:leaf=0.0972619653
					50:[Commits_Average<2.45472527] yes=93,no=94,missing=93
						93:leaf=0.135706931
						94:leaf=-0.00618334999
			12:[User_Accept_Rate<0.57208252] yes=25,no=26,missing=25
				25:[Project_Accept_Rate<0.375086486] yes=51,no=52,missing=51
					51:[Workload<98] yes=95,no=96,missing=95
						95:leaf=0.218265861
						96:leaf=0.326076418
					52:[Churn_Average<330.359253] yes=97,no=98,missing=97
						97:leaf=0.167708471
						98:leaf=0.0498830825
				26:[Wait_Time<13.5558043] yes=53,no=54,missing=53
					53:[Comments_Per_Merged_PR<2.22825813] yes=99,no=100,missing=99
						99:leaf=0.0786717683
						100:leaf=-0.0508709848
					54:[Last_Comment_Mention<1] yes=101,no=102,missing=101
						101:leaf=0.205350503
						102:leaf=0.0764331222
		6:[Wait_Time<36.6631088] yes=13,no=14,missing=13
			13:[Contributor<1] yes=27,no=28,missing=27
				27:[Project_Size<174520.5] yes=55,no=56,missing=55
					55:[Contributions<2] yes=103,no=104,missing=103
						103:leaf=0.297119737
						104:leaf=-0.0777151957
					56:[Tuesday<33.490387] yes=105,no=106,missing=105
						105:leaf=0.0455083698
						106:leaf=0.227081656
				28:[User_Accept_Rate<0.729771674] yes=57,no=58,missing=57
					57:[Commits_PR<21] yes=107,no=108,missing=107
						107:leaf=-0.0156726707
						108:leaf=0.324348062
					58:[Mergeable<1] yes=109,no=110,missing=109
						109:leaf=-0.0962921306
						110:leaf=0.359316409
			14:[Wait_Time<89.8654022] yes=29,no=30,missing=29
				29:[Comments_Count<25] yes=59,no=60,missing=59
					59:[Contributor<1] yes=111,no=112,missing=111
						111:leaf=0.32705009
						112:leaf=0.143987149
					60:[Label_Count<3] yes=113,no=114,missing=113
						113:leaf=0.0906338841
						114:leaf=-0.0720620379
				30:[Review_Comments_Count<6] yes=61,no=62,missing=61
					61:[Project_Age<1523.60852] yes=115,no=116,missing=115
						115:leaf=0.308388382
						116:leaf=0.22299704
					62:[latency_after_first_response<150160.5] yes=117,no=118,missing=117
						117:leaf=0.0690338388
						118:leaf=0.207741693
booster[8]:
0:[Participants_Count<1] yes=1,no=2,missing=1
	1:[first_response<1] yes=3,no=4,missing=3
		3:[User_Accept_Rate<0.613125503] yes=5,no=6,missing=5
			5:[Contributor_Num<1993] yes=7,no=8,missing=7
				7:[User_Accept_Rate<0.212100774] yes=11,no=12,missing=11
					11:[Comments_Per_Merged_PR<1.46366131] yes=19,no=20,missing=19
						19:leaf=0.127836168
						20:leaf=-0.0752591118
					12:[Contributions<23] yes=21,no=22,missing=21
						21:leaf=0.0799330696
						22:leaf=0.212680891
				8:[Wait_Time<0.000607638853] yes=13,no=14,missing=13
					13:[Contributor<2] yes=23,no=24,missing=23
						23:leaf=-0.024503177
						24:leaf=0.215842262
					14:[File_Touched_Average<11.1292276] yes=25,no=26,missing=25
						25:leaf=0.226504758
						26:leaf=-0.0395100228
			6:[Comments_Per_Closed_PR<7.01664448] yes=9,no=10,missing=9
				9:[Wait_Time<7.17688084] yes=15,no=16,missing=15
					15:[Project_Accept_Rate<0.114728406] yes=27,no=28,missing=27
						27:leaf=-0.0794928968
						28:leaf=0.258465141
					16:[Merge_Latency<0.411219835] yes=29,no=30,missing=29
						29:leaf=-0.265452027
						30:leaf=0.144326463
				10:[Forks_Count<8466] yes=17,no=18,missing=17
					17:[Project_Age<358.356018] yes=31,no=32,missing=31
						31:leaf=0.219536871
						32:leaf=0.013280943
					18:[Additions<898] yes=33,no=34,missing=33
						33:leaf=0.26175344
						34:leaf=-0.139699504
		4:leaf=-0.17757684
	2:leaf=-0.17779547
booster[9]:
0:[Participants_Count<1] yes=1,no=2,missing=1
	1:[Contributor_Num<1993] yes=3,no=4,missing=3
		3:[Accept_Num<14] yes=5,no=6,missing=5
			5:[Comments_Per_Merged_PR<1.48568213] yes=9,no=10,missing=9
				9:[Contributions<2592] yes=17,no=18,missing=17
					17:[Contributor<1] yes=33,no=34,missing=33
						33:leaf=0.153550208
						34:leaf=-0.0218516886
					18:leaf=0.625258446
				10:[Contributor<3] yes=19,no=20,missing=19
					19:[first_response<1] yes=35,no=36,missing=35
						35:leaf=0.209941655
						36:leaf=-0.182215765
					20:[Files_Changed<6] yes=37,no=38,missing=37
						37:leaf=-0.145014763
						38:leaf=0.149155974
			6:[Project_Accept_Rate<0.200274736] yes=11,no=12,missing=11
				11:[Contributions<47] yes=21,no=22,missing=21
					21:[File_Touched_Average<1.23611116] yes=39,no=40,missing=39
						39:leaf=-0.00423729932
						40:leaf=0.271767467
					22:[User_Accept_Rate<0.260053784] yes=41,no=42,missing=41
						41:leaf=0.21265927
						42:leaf=-0.0113515547
				12:[Commits_PR<3] yes=23,no=24,missing=23
					23:[Contributor_Num<1179] yes=43,no=44,missing=43
						43:leaf=0.123472415
						44:leaf=-0.109967656
					24:[Organization_Core_Member<1] yes=45,no=46,missing=45
						45:leaf=0.177162006
						46:leaf=-0.072029978
		4:[Language<5] yes=7,no=8,missing=7
			7:[Contributor<1] yes=13,no=14,missing=13
				13:[Forks_Count<1512] yes=25,no=26,missing=25
					25:[Comments_Per_Closed_PR<0.985294104] yes=47,no=48,missing=47
						47:leaf=0.261468261
						48:leaf=-0.00505999289
					26:[first_response<1] yes=49,no=50,missing=49
						49:leaf=0.277522534
						50:leaf=-0.153146863
				14:[Mergeable<1] yes=27,no=28,missing=27
					27:[User_Accept_Rate<0.67249006] yes=51,no=52,missing=51
						51:leaf=-0.0566518568
						52:leaf=-0.123771995
					28:[latency_after_first_response<0.0833333358] yes=53,no=54,missing=53
						53:leaf=-0.00754466979
						54:leaf=0.275801778
			8:[Wait_Time<9.40318298] yes=15,no=16,missing=15
				15:[Mergeable<1] yes=29,no=30,missing=29
					29:[Wait_Time<0.00117476843] yes=55,no=56,missing=55
						55:leaf=-0.0828109384
						56:leaf=-0.152668878
					30:leaf=0.273559451
				16:[Comments_Per_Closed_PR<3.16103172] yes=31,no=32,missing=31
					31:[Comments_Per_Closed_PR<1.6284461] yes=57,no=58,missing=57
						57:leaf=0.147444323
						58:leaf=-0.1718238
					32:[Public_Repos<4] yes=59,no=60,missing=59
						59:leaf=0.678515851
						60:leaf=0.1339086
	2:leaf=-0.17779547
booster[10]:
0:[Participants_Count<1] yes=1,no=2,missing=1
	1:[first_response<1] yes=3,no=4,missing=3
		3:leaf=-0.176764101
		4:[first_response_time<-681.30835] yes=7,no=8,missing=7
			7:[User_Accept_Rate<0.888065875] yes=13,no=14,missing=13
				13:[Comments_Per_Closed_PR<1.44696975] yes=25,no=26,missing=25
					25:leaf=0.256185412
					26:[Followers<819] yes=47,no=48,missing=47
						47:leaf=-0.16745843
						48:leaf=0.0462291576
				14:leaf=0.260727882
			8:[Forks_Count<406] yes=15,no=16,missing=15
				15:[Project_Age<667.117859] yes=27,no=28,missing=27
					27:[Churn_Average<8.18178177] yes=49,no=50,missing=49
						49:leaf=-0.0291985888
						50:leaf=0.26279667
					28:[Project_Age<901.340942] yes=51,no=52,missing=51
						51:leaf=0.0660363585
						52:leaf=-0.119019747
				16:[Commits_PR<113] yes=29,no=30,missing=29
					29:[File_Touched_Average<10.2824049] yes=53,no=54,missing=53
						53:leaf=0.237632796
						54:leaf=0.1773296
					30:[Accept_Num<521] yes=55,no=56,missing=55
						55:leaf=-0.180057481
						56:leaf=0.241293833
	2:[Project_Accept_Rate<0.516746879] yes=5,no=6,missing=5
		5:[Project_Accept_Rate<0.240671158] yes=9,no=10,missing=9
			9:[Contributions<460] yes=17,no=18,missing=17
				17:[Contributions<43] yes=31,no=32,missing=31
					31:[Close_Latency<11.043931] yes=57,no=58,missing=57
						57:leaf=-0.0238966513
						58:leaf=-0.153177336
					32:[User_Accept_Rate<0.278584778] yes=59,no=60,missing=59
						59:leaf=-0.119290203
						60:leaf=0.00655053183
				18:[Accept_Num<18] yes=33,no=34,missing=33
					33:[Contributor_Num<1686] yes=61,no=62,missing=61
						61:leaf=0.141547576
						62:leaf=-0.0740679428
					34:[Following<2] yes=63,no=64,missing=63
						63:leaf=0.226340145
						64:leaf=-0.0208539944
			10:[latency_after_first_response<16.5499992] yes=19,no=20,missing=19
				19:[latency_after_first_response<-0.0250000022] yes=35,no=36,missing=35
					35:[latency_after_first_response<-1.1583333] yes=65,no=66,missing=65
						65:leaf=0.276198775
						66:leaf=0.047025945
					36:[latency_after_first_response<0.0250000022] yes=67,no=68,missing=67
						67:leaf=-0.18135877
						68:leaf=0.0298582576
				20:[Comments_Per_Merged_PR<1.31897771] yes=37,no=38,missing=37
					37:[Project_Accept_Rate<0.352371693] yes=69,no=70,missing=69
						69:leaf=-0.0703534335
						70:leaf=0.0671415031
					38:[Mergeable<1] yes=71,no=72,missing=71
						71:leaf=0.153889865
						72:leaf=-0.205964088
		6:[Wait_Time<53.8172073] yes=11,no=12,missing=11
			11:[User_Accept_Rate<0.617558479] yes=21,no=22,missing=21
				21:[Contributor<1] yes=39,no=40,missing=39
					39:[Project_Size<182088.5] yes=73,no=74,missing=73
						73:leaf=-0.0591224283
						74:leaf=0.0717801079
					40:[latency_after_first_response<-0.00833333377] yes=75,no=76,missing=75
						75:leaf=0.272061735
						76:leaf=0.150954217
				22:[Mergeable<1] yes=41,no=42,missing=41
					41:[Commits_PR<23] yes=77,no=78,missing=77
						77:leaf=0.225029439
						78:leaf=0.0577892587
					42:leaf=-0.189854473
			12:[Contributor<1] yes=23,no=24,missing=23
				23:[Open_Issues<1] yes=43,no=44,missing=43
					43:[X1_2<-184.777176] yes=79,no=80,missing=79
						79:leaf=0.287061512
						80:leaf=-0.0963825136
					44:[Comments_Count<15] yes=81,no=82,missing=81
						81:leaf=-0.161759824
						82:leaf=-0.116201311
				24:[Review_Comments_Count<4] yes=45,no=46,missing=45
					45:[Wait_Time<303.316772] yes=83,no=84,missing=83
						83:leaf=0.0231559873
						84:leaf=-0.112707838
					46:[latency_after_first_response<328487.719] yes=85,no=86,missing=85
						85:leaf=0.132853463
						86:leaf=-0.0141728921
booster[11]:
0:[comments_reviews_words_count<3] yes=1,no=2,missing=1
	1:[Language<7] yes=3,no=4,missing=3
		3:[first_response_time<-55.4083328] yes=7,no=8,missing=7
			7:[Project_Accept_Rate<0.812292159] yes=15,no=16,missing=15
				15:[Wait_Time<0.187146991] yes=31,no=32,missing=31
					31:[Commits_Average<11.707407] yes=63,no=64,missing=63
						63:leaf=0.288882017
						64:leaf=0.0228817202
					32:[Followers<819] yes=65,no=66,missing=65
						65:leaf=0.193964064
						66:leaf=-0.121345758
				16:[Comments_Per_Closed_PR<4.03400993] yes=33,no=34,missing=33
					33:leaf=-0.158571005
					34:leaf=0.24928239
			8:[Participants_Count<1] yes=17,no=18,missing=17
				17:[first_response<1] yes=35,no=36,missing=35
					35:leaf=-0.177045792
					36:[Deletions<1313] yes=67,no=68,missing=67
						67:leaf=-0.0471503921
						68:leaf=0.338052481
				18:[Project_Accept_Rate<0.334296733] yes=37,no=38,missing=37
					37:[Project_Size<165621] yes=69,no=70,missing=69
						69:leaf=0.205729201
						70:leaf=-0.00651075086
					38:[Deletions_Per_Week<-6505.27148] yes=71,no=72,missing=71
						71:leaf=-0.167046666
						72:leaf=-0.0647498742
		4:[Project_Age<951.153748] yes=9,no=10,missing=9
			9:[first_response<1] yes=19,no=20,missing=19
				19:[Comments_Count<1] yes=39,no=40,missing=39
					39:leaf=-0.174529642
					40:[Project_Age<460.547211] yes=73,no=74,missing=73
						73:leaf=0.237437889
						74:leaf=-0.0167369638
				20:[Comments_Per_Merged_PR<1.263906] yes=41,no=42,missing=41
					41:[Additions<148] yes=75,no=76,missing=75
						75:leaf=0.123947941
						76:leaf=0.238941967
					42:[Close_Latency<2.97480345] yes=77,no=78,missing=77
						77:leaf=0.157847255
						78:leaf=0.255039573
			10:[File_Touched_Average<13.0602865] yes=21,no=22,missing=21
				21:[File_Touched_Average<10.2824049] yes=43,no=44,missing=43
					43:[X1_7<-10.1014156] yes=79,no=80,missing=79
						79:leaf=-0.1129952
						80:leaf=0.00245015603
					44:[Commits_Average<2.08462334] yes=81,no=82,missing=81
						81:leaf=0.00770683959
						82:leaf=-0.15629378
				22:[latency_after_first_response<280.766663] yes=45,no=46,missing=45
					45:[Following<8] yes=83,no=84,missing=83
						83:leaf=0.00756099261
						84:leaf=-0.124208488
					46:[File_Touched_Average<15.1940832] yes=85,no=86,missing=85
						85:leaf=0.151794165
						86:leaf=-0.033301767
	2:[User_Accept_Rate<0.630018353] yes=5,no=6,missing=5
		5:[Monday<9.29807663] yes=11,no=12,missing=11
			11:[Project_Domain<7] yes=23,no=24,missing=23
				23:[Contributor<1] yes=47,no=48,missing=47
					47:[Assignees_Count<1] yes=87,no=88,missing=87
						87:leaf=0.242241815
						88:leaf=0.13925688
					48:[Open_Issues<762] yes=89,no=90,missing=89
						89:leaf=0.0688509792
						90:leaf=0.171405211
				24:[Contributions<3671] yes=49,no=50,missing=49
					49:[Comments_Count<1] yes=91,no=92,missing=91
						91:leaf=0.0191291235
						92:leaf=0.222781107
					50:[Last_Comment_Mention<1] yes=93,no=94,missing=93
						93:leaf=0.0357909575
						94:leaf=-0.164173394
			12:[Contributor<1] yes=25,no=26,missing=25
				25:[Project_Accept_Rate<0.926211894] yes=51,no=52,missing=51
					51:[Closed_Num_Rate<0.912878811] yes=95,no=96,missing=95
						95:leaf=0.225014612
						96:leaf=0.0565116107
					52:[comments_reviews_words_count<146] yes=97,no=98,missing=97
						97:leaf=-0.0641091093
						98:leaf=0.18848072
				26:[Project_Accept_Rate<0.870577574] yes=53,no=54,missing=53
					53:[Mergeable<1] yes=99,no=100,missing=99
						99:leaf=0.0588382408
						100:leaf=0.363503307
					54:[Commits_PR<33] yes=101,no=102,missing=101
						101:leaf=-0.064427346
						102:leaf=0.34782359
		6:[Wait_Time<18.2189178] yes=13,no=14,missing=13
			13:[Project_Accept_Rate<0.697986901] yes=27,no=28,missing=27
				27:[Comments_Per_Merged_PR<2.42468882] yes=55,no=56,missing=55
					55:[Contributions<137] yes=103,no=104,missing=103
						103:leaf=0.151979819
						104:leaf=0.030068554
					56:[X1_3<-27.1047478] yes=105,no=106,missing=105
						105:leaf=0.285214365
						106:leaf=-0.0269941725
				28:[Mergeable<1] yes=57,no=58,missing=57
					57:[Commits_PR<27] yes=107,no=108,missing=107
						107:leaf=-0.084550634
						108:leaf=0.194374621
					58:[Contributor<1] yes=109,no=110,missing=109
						109:leaf=0.49243331
						110:leaf=0.282086641
			14:[Wait_Time<53.9077148] yes=29,no=30,missing=29
				29:[Comments_Count<13] yes=59,no=60,missing=59
					59:[Merge_Latency<4.43847561] yes=111,no=112,missing=111
						111:leaf=0.184748977
						112:leaf=0.0849121436
					60:[Assignees_Count<1] yes=113,no=114,missing=113
						113:leaf=0.0511679947
						114:leaf=-0.055165004
				30:[Review_Comments_Count<15] yes=61,no=62,missing=61
					61:[PR_Latency<299897.562] yes=115,no=116,missing=115
						115:leaf=0.167040437
						116:leaf=0.246887669
					62:[latency_after_first_response<279344] yes=117,no=118,missing=117
						117:leaf=0.0197177157
						118:leaf=0.188546449
booster[12]:
0:[Participants_Count<1] yes=1,no=2,missing=1
	1:[first_response<1] yes=3,no=4,missing=3
		3:[Project_Accept_Rate<0.85718286] yes=5,no=6,missing=5
			5:[Contributor<1] yes=7,no=8,missing=7
				7:[Followers<811] yes=11,no=12,missing=11
					11:[Churn_Average<150.394257] yes=19,no=20,missing=19
						19:leaf=0.0174288992
						20:leaf=-0.136449531
					12:[Wait_Time<0.000613425917] yes=21,no=22,missing=21
						21:leaf=-0.2059879
						22:leaf=0.190336555
				8:[User_Accept_Rate<0.523973703] yes=13,no=14,missing=13
					13:[Churn_Average<161.211899] yes=23,no=24,missing=23
						23:leaf=0.155177638
						24:leaf=0.0198818855
					14:[Commits_PR<4] yes=25,no=26,missing=25
						25:leaf=0.193755493
						26:leaf=0.0430764295
			6:[Wait_Time<0.00229745358] yes=9,no=10,missing=9
				9:[Commits_PR<8] yes=15,no=16,missing=15
					15:[Followers<44] yes=27,no=28,missing=27
						27:leaf=0.151802212
						28:leaf=0.222273991
					16:[Followers<76] yes=29,no=30,missing=29
						29:leaf=-0.307218313
						30:leaf=0.0654937103
				10:[Mergeable<1] yes=17,no=18,missing=17
					17:[Stars<653] yes=31,no=32,missing=31
						31:leaf=0.185892224
						32:leaf=0.22571288
					18:leaf=-0.152935356
		4:leaf=-0.171055436
	2:leaf=-0.171381444
booster[13]:
0:[Participants_Count<1] yes=1,no=2,missing=1
	1:[Contributor_Num<1993] yes=3,no=4,missing=3
		3:[User_Accept_Rate<0.5008834] yes=5,no=6,missing=5
			5:[Followers<25] yes=9,no=10,missing=9
				9:[first_response_time<118.883331] yes=17,no=18,missing=17
					17:[Comments_Per_Merged_PR<0.719490826] yes=33,no=34,missing=33
						33:leaf=-0.0162961856
						34:leaf=0.23637554
					18:[Deletions_Per_Week<-3138.92432] yes=35,no=36,missing=35
						35:leaf=0.040493723
						36:leaf=0.185260385
				10:[Project_Accept_Rate<0.230069727] yes=19,no=20,missing=19
					19:[first_response<1] yes=37,no=38,missing=37
						37:leaf=0.163123086
						38:leaf=-0.171039701
					20:[Contributor_Num<1179] yes=39,no=40,missing=39
						39:leaf=0.213953778
						40:leaf=-0.0122141344
			6:[Contributions<34] yes=11,no=12,missing=11
				11:[Comments_Per_Closed_PR<2.28966999] yes=21,no=22,missing=21
					21:[Wait_Time<8.31019592] yes=41,no=42,missing=41
						41:leaf=-0.10758882
						42:leaf=0.2434012
					22:[latency_after_first_response<6.92500019] yes=43,no=44,missing=43
						43:leaf=0.278089523
						44:leaf=0.0501259826
				12:[Prev_PRs<949] yes=23,no=24,missing=23
					23:[Language<1] yes=45,no=46,missing=45
						45:leaf=0.0115216207
						46:leaf=-0.114502147
					24:[Accept_Num<879] yes=47,no=48,missing=47
						47:leaf=0.476398319
						48:leaf=0.0206328966
		4:[Language<5] yes=7,no=8,missing=7
			7:[Contributor<1] yes=13,no=14,missing=13
				13:[latency_after_first_response<74.2250061] yes=25,no=26,missing=25
					25:[Forks_Count<132] yes=49,no=50,missing=49
						49:leaf=0.0116347596
						50:leaf=0.214964524
					26:[Close_Latency<16.4465866] yes=51,no=52,missing=51
						51:leaf=-0.0362926014
						52:leaf=0.265898734
				14:[first_response_time<28.2999992] yes=27,no=28,missing=27
					27:[Closed_Num_Rate<0.234094441] yes=53,no=54,missing=53
						53:leaf=-0.0642792508
						54:leaf=0.0977421701
					28:[latency_after_first_response<10346.3828] yes=55,no=56,missing=55
						55:leaf=-0.0999684632
						56:leaf=0.0768326968
			8:[Project_Accept_Rate<0.299011886] yes=15,no=16,missing=15
				15:[Comments_Per_Closed_PR<2.55242181] yes=29,no=30,missing=29
					29:[Workload<3] yes=57,no=58,missing=57
						57:leaf=-0.000504138239
						58:leaf=0.247029111
					30:[Wait_Time<0.000908564834] yes=59,no=60,missing=59
						59:leaf=0.0448024124
						60:leaf=-0.175378561
				16:[Wait_Time<9.40318298] yes=31,no=32,missing=31
					31:[Wait_Time<0.00795717537] yes=61,no=62,missing=61
						61:leaf=-0.0899137855
						62:leaf=-0.147226214
					32:[Comments_Per_Closed_PR<3.16103172] yes=63,no=64,missing=63
						63:leaf=-0.137865975
						64:leaf=0.183259994
	2:leaf=-0.171381444
booster[14]:
0:[Participants_Count<1] yes=1,no=2,missing=1
	1:[first_response<1] yes=3,no=4,missing=3
		3:leaf=-0.170121789
		4:[latency_after_first_response<9145.2168] yes=7,no=8,missing=7
			7:[Comments_Per_Merged_PR<1.31910181] yes=13,no=14,missing=13
				13:[Language<7] yes=25,no=26,missing=25
					25:[Project_Accept_Rate<0.136992708] yes=47,no=48,missing=47
						47:leaf=-0.185301349
						48:leaf=0.19849506
					26:[Close_Latency<3.15291739] yes=49,no=50,missing=49
						49:leaf=0.0570729747
						50:leaf=-0.0898116827
				14:[Wait_Time<0.000451388885] yes=27,no=28,missing=27
					27:[Contributions<802] yes=51,no=52,missing=51
						51:leaf=-0.185090289
						52:leaf=0.133026153
					28:[Project_Accept_Rate<0.498647839] yes=53,no=54,missing=53
						53:leaf=0.143649533
						54:leaf=0.208460912
			8:[Wait_Time<0.0203472227] yes=15,no=16,missing=15
				15:leaf=-0.168931648
				16:[X1_7<-7.97643709] yes=29,no=30,missing=29
					29:[first_response_time<87.3499985] yes=55,no=56,missing=55
						55:leaf=0.169247195
						56:leaf=-0.152911812
					30:[User_Accept_Rate<0.55747503] yes=57,no=58,missing=57
						57:leaf=-0.182011902
						58:leaf=0.0256546773
	2:[Project_Accept_Rate<0.659391999] yes=5,no=6,missing=5
		5:[Contributor<1] yes=9,no=10,missing=9
			9:[Sunday<6.59615374] yes=17,no=18,missing=17
				17:[Followers<800] yes=31,no=32,missing=31
					31:[Comments_Per_Merged_PR<10.6386919] yes=59,no=60,missing=59
						59:leaf=-0.138799161
						60:leaf=0.065145798
					32:[Forks_Count<1496] yes=61,no=62,missing=61
						61:leaf=0.139618233
						62:leaf=-0.057629481
				18:[latency_after_first_response<-0.00833333377] yes=33,no=34,missing=33
					33:[Churn_Average<225.346741] yes=63,no=64,missing=63
						63:leaf=0.319587439
						64:leaf=-0.0562077798
					34:[latency_after_first_response<0.0250000022] yes=65,no=66,missing=65
						65:leaf=-0.183570594
						66:leaf=0.0107765812
			10:[Project_Accept_Rate<0.238072693] yes=19,no=20,missing=19
				19:[Contributions<460] yes=35,no=36,missing=35
					35:[Churn_Average<544.462036] yes=67,no=68,missing=67
						67:leaf=-0.0550782122
						68:leaf=-0.140340328
					36:[Accept_Num<18] yes=69,no=70,missing=69
						69:leaf=-0.0278849024
						70:leaf=0.136970565
				20:[Mergeable<1] yes=37,no=38,missing=37
					37:[Wait_Time<9.75769043] yes=71,no=72,missing=71
						71:leaf=0.126005605
						72:leaf=0.0353691168
					38:[Merge_Latency<9.16239262] yes=73,no=74,missing=73
						73:leaf=-0.199311778
						74:leaf=0.0320207439
		6:[latency_after_first_response<23513.7852] yes=11,no=12,missing=11
			11:[Commits_PR<16] yes=21,no=22,missing=21
				21:[comments_reviews_words_count<27] yes=39,no=40,missing=39
					39:[Project_Accept_Rate<0.714499593] yes=75,no=76,missing=75
						75:leaf=0.178243607
						76:leaf=0.218669638
					40:[Files_Changed<1] yes=77,no=78,missing=77
						77:leaf=0.0785174146
						78:leaf=0.17041707
				22:[Files_Changed<194] yes=41,no=42,missing=41
					41:[Wait_Time<0.112609953] yes=79,no=80,missing=79
						79:leaf=-0.106521569
						80:leaf=0.0992383063
					42:[Followers<56] yes=81,no=82,missing=81
						81:leaf=-0.231454715
						82:leaf=-0.0388173275
			12:[Contributor<1] yes=23,no=24,missing=23
				23:[latency_after_first_response<64013.625] yes=43,no=44,missing=43
					43:[Comments_Count<20] yes=83,no=84,missing=83
						83:leaf=-0.0615914389
						84:leaf=0.205953091
					44:[Deletions_Per_Week<-74871.0625] yes=85,no=86,missing=85
						85:leaf=0.03837201
						86:leaf=-0.14309001
				24:[Mergeable<1] yes=45,no=46,missing=45
					45:[Comments_Count<13] yes=87,no=88,missing=87
						87:leaf=0.0564273223
						88:leaf=0.135849267
					46:leaf=-0.198988378
booster[15]:
0:[comments_reviews_words_count<4] yes=1,no=2,missing=1
	1:[Project_Accept_Rate<0.470303178] yes=3,no=4,missing=3
		3:[first_response<1] yes=7,no=8,missing=7
			7:[Comments_Count<1] yes=15,no=16,missing=15
				15:leaf=-0.171059087
				16:[Stars<35764] yes=31,no=32,missing=31
					31:[Additions<39] yes=61,no=62,missing=61
						61:leaf=-0.0300453752
						62:leaf=0.190551385
					32:[Workload<15] yes=63,no=64,missing=63
						63:leaf=-0.0886385068
						64:leaf=0.239657551
			8:[Open_Issues<27] yes=17,no=18,missing=17
				17:[latency_after_first_response<-0.0250000022] yes=33,no=34,missing=33
					33:[Commits_PR<2] yes=65,no=66,missing=65
						65:leaf=-0.149101734
						66:leaf=0.135959551
					34:[latency_after_first_response<0.0250000022] yes=67,no=68,missing=67
						67:leaf=0.252140373
						68:leaf=0.133885413
				18:[Close_Latency<4.09770203] yes=35,no=36,missing=35
					35:[latency_after_first_response<1498.3833] yes=69,no=70,missing=69
						69:leaf=-0.0124056097
						70:leaf=0.141958192
					36:[Merge_Latency<9.89743996] yes=71,no=72,missing=71
						71:leaf=0.23653166
						72:leaf=-0.180121809
		4:[comments_reviews_words_count<2] yes=9,no=10,missing=9
			9:[first_response_time<-681.30835] yes=19,no=20,missing=19
				19:[Contributions<1066] yes=37,no=38,missing=37
					37:[Comments_Per_Merged_PR<1.36167884] yes=73,no=74,missing=73
						73:leaf=-0.0902782083
						74:leaf=0.242407799
					38:[Comments_Per_Closed_PR<4.74802017] yes=75,no=76,missing=75
						75:leaf=-0.158822224
						76:leaf=0.199077889
				20:[first_response<1] yes=39,no=40,missing=39
					39:[Comments_Count<1] yes=77,no=78,missing=77
						77:leaf=-0.17027396
						78:leaf=-0.133562699
					40:[Comments_Count<1] yes=79,no=80,missing=79
						79:leaf=-0.0287931878
						80:leaf=-0.129757896
			10:[Wednesday<54.7788467] yes=21,no=22,missing=21
				21:[Project_Size<118123.5] yes=41,no=42,missing=41
					41:[Last_Comment_Mention<1] yes=81,no=82,missing=81
						81:leaf=0.0233253799
						82:leaf=-0.118521176
					42:[Comments_Per_Merged_PR<7.85228682] yes=83,no=84,missing=83
						83:leaf=-0.131603435
						84:leaf=0.531698346
				22:[Forks_Count<364] yes=43,no=44,missing=43
					43:[latency_after_first_response<-0.075000003] yes=85,no=86,missing=85
						85:leaf=0.0670779794
						86:leaf=0.506313205
					44:[latency_after_first_response<-0.00833333377] yes=87,no=88,missing=87
						87:leaf=-0.166440994
						88:leaf=0.0355242528
	2:[User_Accept_Rate<0.7196365] yes=5,no=6,missing=5
		5:[Wednesday<11.5288467] yes=11,no=12,missing=11
			11:[Contributor<1] yes=23,no=24,missing=23
				23:[Followers<809] yes=45,no=46,missing=45
					45:[Review_Comments_Count<2] yes=89,no=90,missing=89
						89:leaf=0.218607083
						90:leaf=0.17627719
					46:[Forks_Count<1193] yes=91,no=92,missing=91
						91:leaf=0.0263308287
						92:leaf=0.164306372
				24:[Project_Accept_Rate<0.2407794] yes=47,no=48,missing=47
					47:[Contributions<459] yes=93,no=94,missing=93
						93:leaf=0.20695211
						94:leaf=0.106682412
					48:[latency_after_first_response<-0.00833333377] yes=95,no=96,missing=95
						95:leaf=-0.0438346379
						96:leaf=0.108833186
			12:[latency_after_first_response<23512.8594] yes=25,no=26,missing=25
				25:[Files_Changed<19] yes=49,no=50,missing=49
					49:[Project_Accept_Rate<0.725435615] yes=97,no=98,missing=97
						97:leaf=0.0474421456
						98:leaf=-0.030761851
					50:[Files_Changed<200] yes=99,no=100,missing=99
						99:leaf=0.11302074
						100:leaf=0.344902486
				26:[Comments_Count<11] yes=51,no=52,missing=51
					51:[Churn_Average<14.3980265] yes=101,no=102,missing=101
						101:leaf=-0.144316182
						102:leaf=0.200496703
					52:[latency_after_first_response<127117.312] yes=103,no=104,missing=103
						103:leaf=0.0470149592
						104:leaf=0.167458966
		6:[Wait_Time<13.9609146] yes=13,no=14,missing=13
			13:[Additions_Per_Week<11050.0605] yes=27,no=28,missing=27
				27:[Contributions<17] yes=53,no=54,missing=53
					53:[latency_after_first_response<-0.00833333377] yes=105,no=106,missing=105
						105:leaf=-0.0738904774
						106:leaf=0.125906274
					54:[Last_Comment_Mention<1] yes=107,no=108,missing=107
						107:leaf=0.0192680378
						108:leaf=-0.0847197771
				28:[Commits_PR<16] yes=55,no=56,missing=55
					55:[Wait_Time<0.0286458321] yes=109,no=110,missing=109
						109:leaf=0.0234203171
						110:leaf=-0.0868910328
					56:[Wait_Time<0.0521006957] yes=111,no=112,missing=111
						111:leaf=0.463818818
						112:leaf=0.0884096771
			14:[Comments_Count<13] yes=29,no=30,missing=29
				29:[latency_after_first_response<76558.2656] yes=57,no=58,missing=57
					57:[Merge_Latency<4.88450766] yes=113,no=114,missing=113
						113:leaf=0.129776806
						114:leaf=0.0500599071
					58:[Merge_Latency<8.96971893] yes=115,no=116,missing=115
						115:leaf=0.178541422
						116:leaf=0.0496153124
				30:[latency_after_first_response<152214.875] yes=59,no=60,missing=59
					59:[Label_Count<4] yes=117,no=118,missing=117
						117:leaf=0.0458398126
						118:leaf=-0.0609675534
					60:[Churn_Average<40.3631744] yes=119,no=120,missing=119
						119:leaf=-0.024222238
						120:leaf=0.128362462
booster[16]:
0:[Participants_Count<1] yes=1,no=2,missing=1
	1:[first_response<1] yes=3,no=4,missing=3
		3:[Project_Accept_Rate<0.87844336] yes=5,no=6,missing=5
			5:[User_Accept_Rate<0.521818459] yes=7,no=8,missing=7
				7:[Churn_Average<146.064423] yes=11,no=12,missing=11
					11:[Wait_Time<0.000630786992] yes=19,no=20,missing=19
						19:leaf=-0.0583452284
						20:leaf=0.122374482
					12:[Workload<34] yes=21,no=22,missing=21
						21:leaf=0.123668492
						22:leaf=-0.0362507142
				8:[Commits_PR<3] yes=13,no=14,missing=13
					13:[Wait_Time<6.85387135] yes=23,no=24,missing=23
						23:leaf=0.167427987
						24:leaf=0.0601290986
					14:[Wait_Time<0.00483217603] yes=25,no=26,missing=25
						25:leaf=-0.0783720464
						26:leaf=0.0920534357
			6:[Wait_Time<0.00117476843] yes=9,no=10,missing=9
				9:[Commits_PR<8] yes=15,no=16,missing=15
					15:[Followers<46] yes=27,no=28,missing=27
						27:leaf=0.107739203
						28:leaf=0.195033014
					16:[Followers<78] yes=29,no=30,missing=29
						29:leaf=-0.289763838
						30:leaf=0.115392864
				10:[Mergeable<1] yes=17,no=18,missing=17
					17:[Deletions<747] yes=31,no=32,missing=31
						31:leaf=0.196578786
						32:leaf=0.0423769988
					18:leaf=-0.157596141
		4:leaf=-0.166345224
	2:leaf=-0.166666001
booster[17]:
0:[Participants_Count<1] yes=1,no=2,missing=1
	1:[Project_Accept_Rate<0.87844336] yes=3,no=4,missing=3
		3:[Accept_Num<13] yes=5,no=6,missing=5
			5:[first_response<1] yes=9,no=10,missing=9
				9:[Churn_Average<146.064423] yes=17,no=18,missing=17
					17:[Wait_Time<0.000584490714] yes=29,no=30,missing=29
						29:leaf=0.288497597
						30:leaf=0.00925677363
					18:[Wait_Time<0.0443113446] yes=31,no=32,missing=31
						31:leaf=0.190298066
						32:leaf=0.0679164529
				10:leaf=-0.172835827
			6:[Wednesday<7.59615374] yes=11,no=12,missing=11
				11:[Contributions<26] yes=19,no=20,missing=19
					19:[Comments_Per_Merged_PR<2.20713282] yes=33,no=34,missing=33
						33:leaf=-0.0251600649
						34:leaf=0.210055783
					20:[Accept_Num<855] yes=35,no=36,missing=35
						35:leaf=-0.0512433313
						36:leaf=0.235876799
				12:[Project_Age<718.193604] yes=21,no=22,missing=21
					21:[Comments_Per_Merged_PR<8.01316071] yes=37,no=38,missing=37
						37:leaf=-0.0408079289
						38:leaf=0.263277471
					22:[Wait_Time<6.33639479] yes=39,no=40,missing=39
						39:leaf=-0.123679228
						40:leaf=0.0826296359
		4:[Wait_Time<0.00117476843] yes=7,no=8,missing=7
			7:[Commits_PR<8] yes=13,no=14,missing=13
				13:[Followers<46] yes=23,no=24,missing=23
					23:[Closed_Num_Rate<0.0885620937] yes=41,no=42,missing=41
						41:leaf=-0.0183081198
						42:leaf=0.23963818
					24:[Public_Repos<90] yes=43,no=44,missing=43
						43:leaf=-0.139550686
						44:leaf=0.283578515
				14:[Followers<78] yes=25,no=26,missing=25
					25:[first_response<1] yes=45,no=46,missing=45
						45:leaf=0.73170656
						46:leaf=-0.0925486982
					26:[Commits_PR<39] yes=47,no=48,missing=47
						47:leaf=-0.126661152
						48:leaf=0.204755664
			8:[Mergeable<1] yes=15,no=16,missing=15
				15:[Wait_Time<9.40318298] yes=27,no=28,missing=27
					27:[Deletions<668] yes=49,no=50,missing=49
						49:leaf=-0.140609905
						50:leaf=0.072849974
					28:[File_Touched_Average<0.940630794] yes=51,no=52,missing=51
						51:leaf=-0.144025818
						52:leaf=0.347694367
				16:leaf=0.209630117
	2:leaf=-0.166666001
booster[18]:
0:[Participants_Count<1] yes=1,no=2,missing=1
	1:[first_response<1] yes=3,no=4,missing=3
		3:leaf=-0.165278688
		4:[first_response_time<-681.30835] yes=7,no=8,missing=7
			7:[User_Accept_Rate<0.810424328] yes=13,no=14,missing=13
				13:[Comments_Per_Closed_PR<1.44696975] yes=25,no=26,missing=25
					25:leaf=0.191148743
					26:[Contributor<3] yes=47,no=48,missing=47
						47:leaf=-0.157202631
						48:leaf=0.0544955842
				14:[Wait_Time<0.0311168991] yes=27,no=28,missing=27
					27:leaf=-0.0186888743
					28:leaf=0.194707349
			8:[Project_Accept_Rate<0.499450147] yes=15,no=16,missing=15
				15:[Merge_Latency<1.43665981] yes=29,no=30,missing=29
					29:[Project_Age<901.340942] yes=49,no=50,missing=49
						49:leaf=0.058057826
						50:leaf=-0.0890157521
					30:[latency_after_first_response<1515.1333] yes=51,no=52,missing=51
						51:leaf=0.127144977
						52:leaf=0.0312216748
				16:[Churn_Average<685.60376] yes=31,no=32,missing=31
					31:[Commits_PR<290] yes=53,no=54,missing=53
						53:leaf=0.184225857
						54:leaf=-0.130811259
					32:[Contributions<189] yes=55,no=56,missing=55
						55:leaf=-0.140371695
						56:leaf=0.1270473
	2:[User_Accept_Rate<0.71306181] yes=5,no=6,missing=5
		5:[Contributor<1] yes=9,no=10,missing=9
			9:[Project_Size<182088.5] yes=17,no=18,missing=17
				17:[Followers<802] yes=33,no=34,missing=33
					33:[Contributions<3] yes=57,no=58,missing=57
						57:leaf=-0.0957429335
						58:leaf=0.313317358
					34:[Workload<127] yes=59,no=60,missing=59
						59:leaf=0.118025117
						60:leaf=-0.0935423374
				18:[Close_Latency<14.1592932] yes=35,no=36,missing=35
					35:[Public_Repos<18] yes=61,no=62,missing=61
						61:leaf=0.105584122
						62:leaf=-0.0567386113
					36:[Closed_Num_Rate<0.954545498] yes=63,no=64,missing=63
						63:leaf=-0.056106668
						64:leaf=0.16958043
			10:[Project_Accept_Rate<0.645384789] yes=19,no=20,missing=19
				19:[Project_Accept_Rate<0.2407794] yes=37,no=38,missing=37
					37:[Contributions<43] yes=65,no=66,missing=65
						65:leaf=-0.109743282
						66:leaf=0.0039705215
					38:[Churn_Average<328.132568] yes=67,no=68,missing=67
						67:leaf=0.0350951441
						68:leaf=0.113882951
				20:[comments_reviews_words_count<27] yes=39,no=40,missing=39
					39:[Last_Comment_Mention<1] yes=69,no=70,missing=69
						69:leaf=0.142245278
						70:leaf=0.196591362
					40:[Mergeable<1] yes=71,no=72,missing=71
						71:leaf=0.0945380703
						72:leaf=-0.199872613
		6:[Wait_Time<13.6109838] yes=11,no=12,missing=11
			11:[Mergeable<1] yes=21,no=22,missing=21
				21:[Project_Accept_Rate<0.698343039] yes=41,no=42,missing=41
					41:[X1_3<-25.8251781] yes=73,no=74,missing=73
						73:leaf=-0.0355437696
						74:leaf=0.132080466
					42:[comments_reviews_words_count<27] yes=75,no=76,missing=75
						75:leaf=0.189781323
						76:leaf=0.155623168
				22:leaf=-0.180110604
			12:[Wait_Time<175.043152] yes=23,no=24,missing=23
				23:[Review_Comments_Count<4] yes=43,no=44,missing=43
					43:[Mergeable<1] yes=77,no=78,missing=77
						77:leaf=0.073627159
						78:leaf=-0.18811956
					44:[Forks_Count<6681] yes=79,no=80,missing=79
						79:leaf=0.117910825
						80:leaf=0.185803086
				24:[Project_Age<1350.22705] yes=45,no=46,missing=45
					45:[Review_Comments_Count<79] yes=81,no=82,missing=81
						81:leaf=-0.1005999
						82:leaf=0.167348698
					46:[Wait_Time<324.501404] yes=83,no=84,missing=83
						83:leaf=0.0956068784
						84:leaf=-0.0536128506
booster[19]:
0:[comments_reviews_words_count<2] yes=1,no=2,missing=1
	1:[first_response<1] yes=3,no=4,missing=3
		3:[Comments_Count<1] yes=7,no=8,missing=7
			7:leaf=-0.165458381
			8:[Project_Accept_Rate<0.691083789] yes=15,no=16,missing=15
				15:[Workload<43] yes=29,no=30,missing=29
					29:[Comments_Per_Closed_PR<1.46261358] yes=57,no=58,missing=57
						57:leaf=0.163142905
						58:leaf=-0.0814005882
					30:[Project_Accept_Rate<0.662003696] yes=59,no=60,missing=59
						59:leaf=0.105192252
						60:leaf=0.390543133
				16:[Project_Domain<7] yes=31,no=32,missing=31
					31:[Project_Age<1580.23022] yes=61,no=62,missing=61
						61:leaf=-0.159288511
						62:leaf=0.104781508
					32:[Additions<5] yes=63,no=64,missing=63
						63:leaf=0.339375943
						64:leaf=-0.0327983536
		4:[Project_Accept_Rate<0.513118148] yes=9,no=10,missing=9
			9:[Forks_Count<406] yes=17,no=18,missing=17
				17:[Comments_Per_Merged_PR<1.263906] yes=33,no=34,missing=33
					33:[Comments_Per_Merged_PR<1.19332755] yes=65,no=66,missing=65
						65:leaf=0.127479017
						66:leaf=0.0426935628
					34:[latency_after_first_response<-0.0583333373] yes=67,no=68,missing=67
						67:leaf=0.020041436
						68:leaf=0.172328442
				18:[User_Accept_Rate<0.220188856] yes=35,no=36,missing=35
					35:[Project_Accept_Rate<0.264797926] yes=69,no=70,missing=69
						69:leaf=0.224212959
						70:leaf=0.062060535
					36:[Comments_Per_Merged_PR<1.93246126] yes=71,no=72,missing=71
						71:leaf=-0.0547946878
						72:leaf=0.0446938425
			10:[Files_Changed<68] yes=19,no=20,missing=19
				19:[latency_after_first_response<11288.4824] yes=37,no=38,missing=37
					37:[User_Accept_Rate<0.696040392] yes=73,no=74,missing=73
						73:leaf=-0.0760553628
						74:leaf=-0.142769679
					38:[Wait_Time<24.6236629] yes=75,no=76,missing=75
						75:leaf=0.126842201
						76:leaf=0.384319216
				20:[Contributions<1000] yes=39,no=40,missing=39
					39:[latency_after_first_response<0.0166666675] yes=77,no=78,missing=77
						77:leaf=0.400445819
						78:leaf=0.192122892
					40:[Wait_Time<0.00723379618] yes=79,no=80,missing=79
						79:leaf=0.18245855
						80:leaf=-0.162195936
	2:[User_Accept_Rate<0.751309037] yes=5,no=6,missing=5
		5:[Monday<9.29807663] yes=11,no=12,missing=11
			11:[latency_after_first_response<0.0250000022] yes=21,no=22,missing=21
				21:[latency_after_first_response<-0.00833333377] yes=41,no=42,missing=41
					41:[Deletions_Per_Week<-2055.54199] yes=81,no=82,missing=81
						81:leaf=-0.0471890047
						82:leaf=0.120200947
					42:[Project_Accept_Rate<0.513053417] yes=83,no=84,missing=83
						83:leaf=0.229516685
						84:leaf=0.361954778
				22:[comments_reviews_words_count<12] yes=43,no=44,missing=43
					43:[Wednesday<3.18269253] yes=85,no=86,missing=85
						85:leaf=0.180448174
						86:leaf=-0.0366904624
					44:[Contributions<2] yes=87,no=88,missing=87
						87:leaf=0.151936755
						88:leaf=0.0878256112
			12:[latency_after_first_response<-0.0250000022] yes=23,no=24,missing=23
				23:[Saturday<7.02884579] yes=45,no=46,missing=45
					45:[Deletions<229] yes=89,no=90,missing=89
						89:leaf=-0.158546314
						90:leaf=0.193431765
					46:[Comments_Per_Closed_PR<7.25729084] yes=91,no=92,missing=91
						91:leaf=-0.0500473529
						92:leaf=0.440330058
				24:[latency_after_first_response<0.0250000022] yes=47,no=48,missing=47
					47:[Contributor<1] yes=93,no=94,missing=93
						93:leaf=0.246041879
						94:leaf=0.45846656
					48:[latency_after_first_response<14214.166] yes=95,no=96,missing=95
						95:leaf=0.0109404558
						96:leaf=0.0975711122
		6:[Wait_Time<9.75366306] yes=13,no=14,missing=13
			13:[Project_Accept_Rate<0.698343039] yes=25,no=26,missing=25
				25:[X1_3<-15.5090847] yes=49,no=50,missing=49
					49:[Comments_Per_Merged_PR<6.52963257] yes=97,no=98,missing=97
						97:leaf=0.116382807
						98:leaf=0.359444171
					50:[Contributions<39] yes=99,no=100,missing=99
						99:leaf=0.059646707
						100:leaf=-0.039937973
				26:[Wait_Time<0.0228993054] yes=51,no=52,missing=51
					51:[Comments_Per_Closed_PR<9.21678925] yes=101,no=102,missing=101
						101:leaf=-0.0204306096
						102:leaf=0.454193532
					52:[Mergeable<1] yes=103,no=104,missing=103
						103:leaf=-0.0788723603
						104:leaf=0.232640713
			14:[Review_Comments_Count<2] yes=27,no=28,missing=27
				27:[Mergeable<1] yes=53,no=54,missing=53
					53:[Churn_Average<2498.19995] yes=105,no=106,missing=105
						105:leaf=0.0958819687
						106:leaf=-0.0229713582
					54:leaf=0.255042166
				28:[latency_after_first_response<96662.0859] yes=55,no=56,missing=55
					55:[Comments_Count<15] yes=107,no=108,missing=107
						107:leaf=0.0179529693
						108:leaf=-0.0585866496
					56:[Comments_Count<30] yes=109,no=110,missing=109
						109:leaf=0.103781745
						110:leaf=-0.00230018073
booster[20]:
0:[Participants_Count<1] yes=1,no=2,missing=1
	1:[first_response<1] yes=3,no=4,missing=3
		3:[Project_Accept_Rate<0.898801386] yes=5,no=6,missing=5
			5:[Contributor<1] yes=7,no=8,missing=7
				7:[Followers<811] yes=11,no=12,missing=11
					11:[Wednesday<6.43269253] yes=19,no=20,missing=19
						19:leaf=-0.14337787
						20:leaf=-0.0139875999
					12:[Workload<200] yes=21,no=22,missing=21
						21:leaf=0.138764173
						22:leaf=-0.159053952
				8:[Accept_Num<21] yes=13,no=14,missing=13
					13:[Comments_Per_Merged_PR<2.10749531] yes=23,no=24,missing=23
						23:leaf=0.113248065
						24:leaf=0.0404747687
					14:[Commits_PR<4] yes=25,no=26,missing=25
						25:leaf=0.145573378
						26:leaf=0.0196597129
			6:[Wait_Time<0.000862268498] yes=9,no=10,missing=9
				9:[Followers<46] yes=15,no=16,missing=15
					15:[Commits_PR<3] yes=27,no=28,missing=27
						27:leaf=0.083192274
						28:leaf=-0.227894992
					16:[Commits_PR<30] yes=29,no=30,missing=29
						29:leaf=0.176918373
						30:leaf=-0.207636565
				10:[Mergeable<1] yes=17,no=18,missing=17
					17:[Deletions<596] yes=31,no=32,missing=31
						31:leaf=0.177261919
						32:leaf=0.0558617264
					18:leaf=-0.144916251
		4:leaf=-0.16283761
	2:leaf=-0.163163722
booster[21]:
0:[Participants_Count<1] yes=1,no=2,missing=1
	1:[Merge_Latency<2.10149169] yes=3,no=4,missing=3
		3:[Wednesday<5.02884579] yes=5,no=6,missing=5
			5:[Label_Count<1] yes=9,no=10,missing=9
				9:[Forks_Count<74] yes=17,no=18,missing=17
					17:[X1_4<0.993698359] yes=31,no=32,missing=31
						31:leaf=-0.169419438
						32:leaf=0.162681341
					18:[X1_2<-31.0698872] yes=33,no=34,missing=33
						33:leaf=0.320557892
						34:leaf=0.150752902
				10:[latency_after_first_response<1665.65002] yes=19,no=20,missing=19
					19:[X1_0<14.948204] yes=35,no=36,missing=35
						35:leaf=-0.148121461
						36:leaf=0.218803123
					20:[Merge_Latency<1.81521106] yes=37,no=38,missing=37
						37:leaf=0.23750104
						38:leaf=-0.142651483
			6:[Project_Accept_Rate<0.299011886] yes=11,no=12,missing=11
				11:[Accept_Num<7] yes=21,no=22,missing=21
					21:[Forks_Count<12] yes=39,no=40,missing=39
						39:leaf=-0.11794176
						40:leaf=0.249044135
					22:[X1_7<-32.9611588] yes=41,no=42,missing=41
						41:leaf=0.148073167
						42:leaf=-0.178927436
				12:[Wait_Time<0.00222800928] yes=23,no=24,missing=23
					23:[Followers<45] yes=43,no=44,missing=43
						43:leaf=0.0305028278
						44:leaf=-0.110569969
					24:[latency_after_first_response<13540.584] yes=45,no=46,missing=45
						45:leaf=-0.127729908
						46:leaf=0.0823448896
		4:[User_Accept_Rate<0.266960084] yes=7,no=8,missing=7
			7:[first_response<1] yes=13,no=14,missing=13
				13:[File_Touched_Average<3.27325773] yes=25,no=26,missing=25
					25:[Closed_Num_Rate<0.240384609] yes=47,no=48,missing=47
						47:leaf=0.00660996418
						48:leaf=0.121937804
					26:[Forks_Count<132] yes=49,no=50,missing=49
						49:leaf=-0.0455913246
						50:leaf=0.172838062
				14:leaf=-0.16863884
			8:[Contributions<8] yes=15,no=16,missing=15
				15:[latency_after_first_response<14.8249998] yes=27,no=28,missing=27
					27:[Team_Size<24] yes=51,no=52,missing=51
						51:leaf=0.275233537
						52:leaf=0.0472793467
					28:[Wednesday<7.59615374] yes=53,no=54,missing=53
						53:leaf=0.0917549878
						54:leaf=-0.0482859351
				16:[Contributor_Num<1179] yes=29,no=30,missing=29
					29:[Label_Count<1] yes=55,no=56,missing=55
						55:leaf=0.2749798
						56:leaf=-0.134934321
					30:[Comments_Per_Closed_PR<7.01664448] yes=57,no=58,missing=57
						57:leaf=-0.0723943561
						58:leaf=0.0812932774
	2:leaf=-0.163163722
booster[22]:
0:[Participants_Count<1] yes=1,no=2,missing=1
	1:[first_response<1] yes=3,no=4,missing=3
		3:leaf=-0.161728874
		4:[first_response_time<-681.30835] yes=7,no=8,missing=7
			7:[Wait_Time<0.02074074] yes=13,no=14,missing=13
				13:[Project_Age<273.225708] yes=25,no=26,missing=25
					25:leaf=0.0156610645
					26:leaf=-0.163034409
				14:[Project_Accept_Rate<0.565223932] yes=27,no=28,missing=27
					27:[User_Accept_Rate<0.724489808] yes=49,no=50,missing=49
						49:leaf=-0.138135016
						50:leaf=0.155340925
					28:[title_words_count<4] yes=51,no=52,missing=51
						51:leaf=-0.0335286185
						52:leaf=0.208371833
			8:[Project_Accept_Rate<0.499450147] yes=15,no=16,missing=15
				15:[Merge_Latency<1.43665981] yes=29,no=30,missing=29
					29:[Project_Age<901.340942] yes=53,no=54,missing=53
						53:leaf=0.0531761907
						54:leaf=-0.0758230984
					30:[latency_after_first_response<515.325012] yes=55,no=56,missing=55
						55:leaf=0.116965026
						56:leaf=0.0547037274
				16:[Wait_Time<0.000451388885] yes=31,no=32,missing=31
					31:[Contributions<1025] yes=57,no=58,missing=57
						57:leaf=-0.144531816
						58:leaf=0.132779792
					32:[User_Accept_Rate<0.559411764] yes=59,no=60,missing=59
						59:leaf=0.0954145864
						60:leaf=0.179738536
	2:[User_Accept_Rate<0.550176382] yes=5,no=6,missing=5
		5:[Project_Accept_Rate<0.734028101] yes=9,no=10,missing=9
			9:[latency_after_first_response<-0.00833333377] yes=17,no=18,missing=17
				17:[Deletions_Per_Week<-2739.59424] yes=33,no=34,missing=33
					33:[latency_after_first_response<-0.275000006] yes=61,no=62,missing=61
						61:leaf=0.109704845
						62:leaf=0.197828531
					34:[Merge_Latency<3.66543818] yes=63,no=64,missing=63
						63:leaf=0.213483706
						64:leaf=-0.0534088351
				18:[latency_after_first_response<0.0250000022] yes=35,no=36,missing=35
					35:[Project_Accept_Rate<0.512908101] yes=65,no=66,missing=65
						65:leaf=-0.170307472
						66:leaf=-0.233349875
					36:[Wednesday<3.18269253] yes=67,no=68,missing=67
						67:leaf=-0.0640799999
						68:leaf=0.0408326276
			10:[Commits_PR<22] yes=19,no=20,missing=19
				19:[comments_reviews_words_count<14] yes=37,no=38,missing=37
					37:[X1_1<-8.67774296] yes=69,no=70,missing=69
						69:leaf=0.174451277
						70:leaf=0.0698696449
					38:[Wait_Time<0.0546238422] yes=71,no=72,missing=71
						71:leaf=-0.00988873094
						72:leaf=0.0897394419
				20:[Deletions<1441] yes=39,no=40,missing=39
					39:[Comments_Count<10] yes=73,no=74,missing=73
						73:leaf=-0.157570794
						74:leaf=0.0477328971
					40:[Participants_Count<11] yes=75,no=76,missing=75
						75:leaf=-0.241253063
						76:leaf=0.0154248215
		6:[Wait_Time<12.647049] yes=11,no=12,missing=11
			11:[Additions_Per_Week<11050.0605] yes=21,no=22,missing=21
				21:[latency_after_first_response<-0.00833333377] yes=41,no=42,missing=41
					41:[Mergeable<1] yes=77,no=78,missing=77
						77:leaf=0.180620655
						78:leaf=-0.190364271
					42:[latency_after_first_response<0.0250000022] yes=79,no=80,missing=79
						79:leaf=-0.264845401
						80:leaf=0.0982136726
				22:[Wait_Time<0.0286458321] yes=43,no=44,missing=43
					43:[Forks_Count<1364] yes=81,no=82,missing=81
						81:leaf=0.138125971
						82:leaf=-0.0163407531
					44:[Commits_PR<15] yes=83,no=84,missing=83
						83:leaf=0.145636693
						84:leaf=0.0510492586
			12:[Comments_Count<10] yes=23,no=24,missing=23
				23:[first_response_time<441.516663] yes=45,no=46,missing=45
					45:[comments_reviews_words_count<156] yes=85,no=86,missing=85
						85:leaf=0.0225112513
						86:leaf=-0.0642523617
					46:[latency_after_first_response<0.0250000022] yes=87,no=88,missing=87
						87:leaf=-0.0796791017
						88:leaf=0.0569574386
				24:[latency_after_first_response<214688.125] yes=47,no=48,missing=47
					47:[Label_Count<4] yes=89,no=90,missing=89
						89:leaf=0.0615248084
						90:leaf=0.1301222
					48:[Project_Age<1350.21191] yes=91,no=92,missing=91
						91:leaf=-0.0586512461
						92:leaf=0.0364104956
booster[23]:
0:[comments_reviews_words_count<2] yes=1,no=2,missing=1
	1:[first_response<1] yes=3,no=4,missing=3
		3:[Comments_Count<1] yes=7,no=8,missing=7
			7:leaf=-0.161874309
			8:[Project_Accept_Rate<0.696783543] yes=15,no=16,missing=15
				15:[Workload<25] yes=29,no=30,missing=29
					29:[Closed_Num_Rate<0.299532712] yes=57,no=58,missing=57
						57:leaf=-0.152957827
						58:leaf=0.0357904322
					30:[Commits_Average<1.09486604] yes=59,no=60,missing=59
						59:leaf=-0.0704613999
						60:leaf=0.147032335
				16:[Project_Domain<7] yes=31,no=32,missing=31
					31:[Wait_Time<0.000555555569] yes=61,no=62,missing=61
						61:leaf=0.16229251
						62:leaf=-0.153127924
					32:[X1_2<-16.5525532] yes=63,no=64,missing=63
						63:leaf=-0.0861525089
						64:leaf=0.233126059
		4:[Comments_Count<1] yes=9,no=10,missing=9
			9:[Wait_Time<0.00233796285] yes=17,no=18,missing=17
				17:[Close_Latency<2.30185461] yes=33,no=34,missing=33
					33:leaf=-0.139387757
					34:[User_Accept_Rate<0.912184298] yes=65,no=66,missing=65
						65:leaf=0.225006416
						66:leaf=-0.120485909
				18:[latency_after_first_response<1.04999995] yes=35,no=36,missing=35
					35:[Accept_Num<9] yes=67,no=68,missing=67
						67:leaf=0.0641725361
						68:leaf=-0.131106943
					36:[Open_Issues<27] yes=69,no=70,missing=69
						69:leaf=0.094350338
						70:leaf=0.0286528058
			10:[Project_Accept_Rate<0.434844673] yes=19,no=20,missing=19
				19:[Close_Latency<22.2340279] yes=37,no=38,missing=37
					37:[Wait_Time<0.0114467591] yes=71,no=72,missing=71
						71:leaf=-0.100101598
						72:leaf=0.138217434
					38:[Closed_Num_Rate<0.55396831] yes=73,no=74,missing=73
						73:leaf=-0.156773925
						74:leaf=0.112475008
				20:[Project_Domain<6] yes=39,no=40,missing=39
					39:[Wait_Time<103.965393] yes=75,no=76,missing=75
						75:leaf=-0.147098154
						76:leaf=0.310646236
					40:[latency_after_first_response<-0.0250000022] yes=77,no=78,missing=77
						77:leaf=-0.122959554
						78:leaf=0.0539563112
	2:[Contributions<33] yes=5,no=6,missing=5
		5:[Monday<9.29807663] yes=11,no=12,missing=11
			11:[Deletions_Per_Week<-3751.69043] yes=21,no=22,missing=21
				21:[comments_reviews_words_count<18] yes=41,no=42,missing=41
					41:[Participants_Count<2] yes=79,no=80,missing=79
						79:leaf=0.0561656766
						80:leaf=-0.133530855
					42:[Review_Comments_Count<1] yes=81,no=82,missing=81
						81:leaf=0.123631649
						82:leaf=0.0156067321
				22:[Last_Comment_Mention<1] yes=43,no=44,missing=43
					43:[Workload<109] yes=83,no=84,missing=83
						83:leaf=0.130288094
						84:leaf=0.195208088
					44:[comments_reviews_words_count<8] yes=85,no=86,missing=85
						85:leaf=-0.0449455008
						86:leaf=0.0999076143
			12:[latency_after_first_response<-0.00833333377] yes=23,no=24,missing=23
				23:[latency_after_first_response<-0.791666687] yes=45,no=46,missing=45
					45:[Churn_Average<194.940613] yes=87,no=88,missing=87
						87:leaf=-0.0783367157
						88:leaf=0.161357492
					46:[Project_Accept_Rate<0.649853885] yes=89,no=90,missing=89
						89:leaf=-0.0427172147
						90:leaf=-0.163780943
				24:[latency_after_first_response<0.00833333377] yes=47,no=48,missing=47
					47:[Contributor<1] yes=91,no=92,missing=91
						91:leaf=0.228740871
						92:leaf=0.411838621
					48:[Commits_PR<10] yes=93,no=94,missing=93
						93:leaf=0.0329103805
						94:leaf=0.219795629
		6:[Closed_Num_Rate<0.159562513] yes=13,no=14,missing=13
			13:[Commits_PR<8] yes=25,no=26,missing=25
				25:[latency_after_first_response<15440.6338] yes=49,no=50,missing=49
					49:[Mergeable<1] yes=95,no=96,missing=95
						95:leaf=-0.0582932457
						96:leaf=0.227109939
					50:[Project_Age<1351.58716] yes=97,no=98,missing=97
						97:leaf=0.037014313
						98:leaf=-0.0366197489
				26:[Wait_Time<0.107031249] yes=51,no=52,missing=51
					51:[Contributions<1821] yes=99,no=100,missing=99
						99:leaf=0.294190019
						100:leaf=0.00221101171
					52:[Files_Changed<96] yes=101,no=102,missing=101
						101:leaf=0.015078079
						102:leaf=0.16097936
			14:[Wait_Time<5.67612267] yes=27,no=28,missing=27
				27:[User_Accept_Rate<0.458849013] yes=53,no=54,missing=53
					53:[Closed_Num_Rate<0.978142083] yes=103,no=104,missing=103
						103:leaf=0.0921345279
						104:leaf=-0.116845973
					54:[latency_after_first_response<0.0250000022] yes=105,no=106,missing=105
						105:leaf=0.0861130729
						106:leaf=-0.0113928439
				28:[Review_Comments_Count<2] yes=55,no=56,missing=55
					55:[Label_Count<4] yes=107,no=108,missing=107
						107:leaf=0.133675247
						108:leaf=0.0594913475
					56:[Deletions_Per_Week<-3064.25488] yes=109,no=110,missing=109
						109:leaf=0.0157611836
						110:leaf=0.0867603123
booster[24]:
0:[Participants_Count<1] yes=1,no=2,missing=1
	1:[first_response<1] yes=3,no=4,missing=3
		3:[Project_Accept_Rate<0.898801386] yes=5,no=6,missing=5
			5:[User_Accept_Rate<0.701057017] yes=7,no=8,missing=7
				7:[Wait_Time<0.000630786992] yes=11,no=12,missing=11
					11:[Contributions<602] yes=19,no=20,missing=19
						19:leaf=-0.125795588
						20:leaf=0.1157488
					12:[Project_Accept_Rate<0.229814082] yes=21,no=22,missing=21
						21:leaf=-0.0294622611
						22:leaf=0.0861507654
				8:[Comments_Per_Closed_PR<7.01664448] yes=13,no=14,missing=13
					13:[Contributor_Num<1229] yes=23,no=24,missing=23
						23:leaf=-0.010098408
						24:leaf=0.140180305
					14:[Forks_Count<8466] yes=25,no=26,missing=25
						25:leaf=-0.0627150238
						26:leaf=0.159798905
			6:[Wait_Time<0.00222800928] yes=9,no=10,missing=9
				9:[Commits_PR<7] yes=15,no=16,missing=15
					15:[X1_4<-111.982773] yes=27,no=28,missing=27
						27:leaf=-0.147870809
						28:leaf=0.136775225
					16:[Contributions<2060] yes=29,no=30,missing=29
						29:leaf=-0.244637862
						30:leaf=0.0303245485
				10:[Wait_Time<9.40318298] yes=17,no=18,missing=17
					17:[Mergeable<1] yes=31,no=32,missing=31
						31:leaf=0.163851365
						32:leaf=-0.139190987
					18:[Merge_Latency<0.79756856] yes=33,no=34,missing=33
						33:leaf=-0.268161148
						34:leaf=0.171185285
		4:leaf=-0.160090148
	2:leaf=-0.160512909
booster[25]:
0:[Participants_Count<1] yes=1,no=2,missing=1
	1:[User_Accept_Rate<0.709207654] yes=3,no=4,missing=3
		3:[first_response<1] yes=5,no=6,missing=5
			5:[Wait_Time<0.000538194436] yes=9,no=10,missing=9
				9:[Contributions<602] yes=15,no=16,missing=15
					15:[Forks_Count<454] yes=27,no=28,missing=27
						27:leaf=0.150359318
						28:leaf=0.315032721
					16:[Project_Age<1155.91528] yes=29,no=30,missing=29
						29:leaf=-0.0947268978
						30:leaf=0.321576446
				10:[Project_Accept_Rate<0.857839763] yes=17,no=18,missing=17
					17:[Churn_Average<165.14473] yes=31,no=32,missing=31
						31:leaf=0.0122219427
						32:leaf=0.100596361
					18:[Commits_Average<2.26315451] yes=33,no=34,missing=33
						33:leaf=-0.104463384
						34:leaf=-0.0151394075
			6:leaf=-0.165135518
		4:[Comments_Per_Closed_PR<7.01664448] yes=7,no=8,missing=7
			7:[Saturday<3.90384626] yes=11,no=12,missing=11
				11:[Close_Latency<27.2148399] yes=19,no=20,missing=19
					19:[Churn_Average<327.411804] yes=35,no=36,missing=35
						35:leaf=-0.000913630531
						36:leaf=0.256630182
					20:[Commits_PR<4] yes=37,no=38,missing=37
						37:leaf=-0.0858635232
						38:leaf=0.197321162
				12:[Wait_Time<6.95247698] yes=21,no=22,missing=21
					21:[Wait_Time<0.022112269] yes=39,no=40,missing=39
						39:leaf=-0.0871881396
						40:leaf=-0.129434645
					22:[Public_Repos<4] yes=41,no=42,missing=41
						41:leaf=0.268891364
						42:leaf=-0.00836216006
			8:[Forks_Count<9227] yes=13,no=14,missing=13
				13:[Sunday<1.20192313] yes=23,no=24,missing=23
					23:[Wait_Time<0.000324074063] yes=43,no=44,missing=43
						43:leaf=-0.0428861603
						44:leaf=0.613412976
					24:[Additions<8] yes=45,no=46,missing=45
						45:leaf=-0.00637476565
						46:leaf=0.251212716
				14:[Additions<898] yes=25,no=26,missing=25
					25:[Wait_Time<0.0078125] yes=47,no=48,missing=47
						47:leaf=0.0653378442
						48:leaf=-0.158148482
					26:leaf=0.323432684
	2:leaf=-0.160512909
booster[26]:
0:[Participants_Count<1] yes=1,no=2,missing=1
	1:[first_response<1] yes=3,no=4,missing=3
		3:leaf=-0.159097552
		4:[latency_after_first_response<11498.875] yes=7,no=8,missing=7
			7:[Project_Accept_Rate<0.499450147] yes=13,no=14,missing=13
				13:[latency_after_first_response<1514.6167] yes=21,no=22,missing=21
					21:[Merge_Latency<1.10088968] yes=37,no=38,missing=37
						37:leaf=-0.0444319844
						38:leaf=0.0755760074
					22:[Comments_Per_Merged_PR<2.40777636] yes=39,no=40,missing=39
						39:leaf=-0.0456178114
						40:leaf=0.15673165
				14:[Churn_Average<685.60376] yes=23,no=24,missing=23
					23:[Contributor<1] yes=41,no=42,missing=41
						41:leaf=-0.0247218125
						42:leaf=0.146585986
					24:[Assignees_Count<1] yes=43,no=44,missing=43
						43:leaf=-0.0591541044
						44:leaf=0.190127715
			8:[Contributions<971] yes=15,no=16,missing=15
				15:[Intra_Branch<1] yes=25,no=26,missing=25
					25:[Project_Accept_Rate<0.727674603] yes=45,no=46,missing=45
						45:leaf=-0.168050617
						46:leaf=0.0351198725
					26:leaf=0.0962815285
				16:[X1_6<4.26225901] yes=27,no=28,missing=27
					27:leaf=-0.150024578
					28:[Closed_Num_Rate<0.555500865] yes=47,no=48,missing=47
						47:leaf=0.216351852
						48:leaf=-0.102878265
	2:[Mergeable<1] yes=5,no=6,missing=5
		5:[User_Accept_Rate<0.78677249] yes=9,no=10,missing=9
			9:[Contributor<1] yes=17,no=18,missing=17
				17:[Forks_Count<1808] yes=29,no=30,missing=29
					29:[Project_Domain<8] yes=49,no=50,missing=49
						49:leaf=0.0619513802
						50:leaf=-0.04075782
					30:[Project_Accept_Rate<0.768622279] yes=51,no=52,missing=51
						51:leaf=-0.0963204131
						52:leaf=-0.0100349467
				18:[latency_after_first_response<-0.00833333377] yes=31,no=32,missing=31
					31:[Language<5] yes=53,no=54,missing=53
						53:leaf=0.118470199
						54:leaf=0.181269899
					32:[latency_after_first_response<0.00833333377] yes=55,no=56,missing=55
						55:leaf=-0.229573995
						56:leaf=0.0691878647
			10:[comments_reviews_words_count<27] yes=19,no=20,missing=19
				19:[latency_after_first_response<0.0250000022] yes=33,no=34,missing=33
					33:[latency_after_first_response<-0.00833333377] yes=57,no=58,missing=57
						57:leaf=0.169895172
						58:leaf=-0.178385317
					34:[Commits_PR<10] yes=59,no=60,missing=59
						59:leaf=0.153150022
						60:leaf=0.0564102605
				20:[Label_Count<4] yes=35,no=36,missing=35
					35:[Workload<466] yes=61,no=62,missing=61
						61:leaf=0.0842902884
						62:leaf=-0.4290874
					36:[Last_Comment_Mention<1] yes=63,no=64,missing=63
						63:leaf=0.142886132
						64:leaf=0.0747132078
		6:[Merge_Latency<12.701745] yes=11,no=12,missing=11
			11:leaf=-0.189366356
			12:leaf=0.0307354163
booster[27]:
0:[comments_reviews_words_count<4] yes=1,no=2,missing=1
	1:[Project_Accept_Rate<0.470303178] yes=3,no=4,missing=3
		3:[first_response<1] yes=7,no=8,missing=7
			7:[Comments_Count<1] yes=15,no=16,missing=15
				15:leaf=-0.160300463
				16:[Stars<25052] yes=31,no=32,missing=31
					31:[comments_reviews_words_count<3] yes=59,no=60,missing=59
						59:leaf=-0.205026045
						60:leaf=0.0398270637
					32:[Closed_Num_Rate<0.509819031] yes=61,no=62,missing=61
						61:leaf=0.0285789911
						62:leaf=0.171170488
			8:[comments_reviews_words_count<3] yes=17,no=18,missing=17
				17:[latency_after_first_response<1513.1167] yes=33,no=34,missing=33
					33:[Forks_Count<407] yes=63,no=64,missing=63
						63:leaf=0.064264603
						64:leaf=0.0108385645
					34:[Commits_Average<1.73108685] yes=65,no=66,missing=65
						65:leaf=0.062772356
						66:leaf=0.169606596
				18:[latency_after_first_response<-0.0333333351] yes=35,no=36,missing=35
					35:[X1_5<5.30298901] yes=67,no=68,missing=67
						67:leaf=-0.283225089
						68:leaf=0.0169772021
					36:[Project_Accept_Rate<0.38057977] yes=69,no=70,missing=69
						69:leaf=0.188491747
						70:leaf=0.0745724663
		4:[Comments_Count<1] yes=9,no=10,missing=9
			9:[first_response<1] yes=19,no=20,missing=19
				19:leaf=-0.159089312
				20:[Wait_Time<0.0084317131] yes=37,no=38,missing=37
					37:[Comments_Per_Merged_PR<1.7964685] yes=71,no=72,missing=71
						71:leaf=-0.0412034541
						72:leaf=0.202677146
					38:[User_Accept_Rate<0.570714295] yes=73,no=74,missing=73
						73:leaf=0.0574128889
						74:leaf=-0.0783297271
			10:[Wednesday<54.7788467] yes=21,no=22,missing=21
				21:[Deletions_Per_Week<-3064.25488] yes=39,no=40,missing=39
					39:[Wait_Time<0.000596064841] yes=75,no=76,missing=75
						75:leaf=0.108600602
						76:leaf=-0.119081981
					40:[Open_Issues<926] yes=77,no=78,missing=77
						77:leaf=-0.0483236462
						78:leaf=0.369312376
				22:[Forks_Count<364] yes=41,no=42,missing=41
					41:[latency_after_first_response<67.0500031] yes=79,no=80,missing=79
						79:leaf=0.208636016
						80:leaf=0.411477238
					42:[latency_after_first_response<-0.00833333377] yes=81,no=82,missing=81
						81:leaf=-0.135629416
						82:leaf=0.0291744731
	2:[Contributions<143] yes=5,no=6,missing=5
		5:[Contributor<1] yes=11,no=12,missing=11
			11:[Deletions_Per_Week<-74871.0625] yes=23,no=24,missing=23
				23:[Mergeable<1] yes=43,no=44,missing=43
					43:[Additions<477] yes=83,no=84,missing=83
						83:leaf=-0.100945011
						84:leaf=0.11967694
					44:[Wait_Time<27.2923203] yes=85,no=86,missing=85
						85:leaf=0.332241178
						86:leaf=0.20561184
				24:[Project_Accept_Rate<0.86181891] yes=45,no=46,missing=45
					45:[Closed_Num_Rate<0.912878811] yes=87,no=88,missing=87
						87:leaf=0.148223087
						88:leaf=0.0213011429
					46:[latency_after_first_response<-0.0333333351] yes=89,no=90,missing=89
						89:leaf=-0.151966304
						90:leaf=0.0686583742
			12:[Monday<9.29807663] yes=25,no=26,missing=25
				25:[Close_Latency<43.3791313] yes=47,no=48,missing=47
					47:[Project_Accept_Rate<0.233869106] yes=91,no=92,missing=91
						91:leaf=0.155001864
						92:leaf=0.0807367191
					48:[Wait_Time<16.8822632] yes=93,no=94,missing=93
						93:leaf=-0.0737878531
						94:leaf=0.0377012342
				26:[Wait_Time<0.0511921309] yes=49,no=50,missing=49
					49:[Comments_Per_Merged_PR<4.38343763] yes=95,no=96,missing=95
						95:leaf=0.0526063368
						96:leaf=0.445469767
					50:[Mergeable<1] yes=97,no=98,missing=97
						97:leaf=0.0113024851
						98:leaf=0.234677121
		6:[Closed_Num_Rate<0.114239767] yes=13,no=14,missing=13
			13:[X1_4<3.61252308] yes=27,no=28,missing=27
				27:[latency_after_first_response<6637.5166] yes=51,no=52,missing=51
					51:[latency_after_first_response<0.0250000022] yes=99,no=100,missing=99
						99:leaf=0.0315166228
						100:leaf=-0.0688857213
					52:[Project_Age<1303.21899] yes=101,no=102,missing=101
						101:leaf=0.0283761881
						102:leaf=-0.0664042011
				28:[Comments_Per_Closed_PR<4.58693695] yes=53,no=54,missing=53
					53:[comments_reviews_words_count<37] yes=103,no=104,missing=103
						103:leaf=0.265768737
						104:leaf=-0.0394430012
					54:[comments_reviews_words_count<126] yes=105,no=106,missing=105
						105:leaf=0.345228434
						106:leaf=0.085372135
			14:[Comments_Per_Merged_PR<1.45647597] yes=29,no=30,missing=29
				29:[Team_Size<42] yes=55,no=56,missing=55
					55:[X1_4<5.51332855] yes=107,no=108,missing=107
						107:leaf=-0.0244741905
						108:leaf=0.584652901
					56:[Open_Issues<28] yes=109,no=110,missing=109
						109:leaf=0.154150173
						110:leaf=0.00418708427
				30:[Mergeable<1] yes=57,no=58,missing=57
					57:[latency_after_first_response<10188.2754] yes=111,no=112,missing=111
						111:leaf=-0.00616920134
						112:leaf=0.0556503013
					58:[Contributor_Num<2048] yes=113,no=114,missing=113
						113:leaf=0.224198416
						114:leaf=0.265863419
booster[28]:
0:[Participants_Count<1] yes=1,no=2,missing=1
	1:[first_response<1] yes=3,no=4,missing=3
		3:[Project_Accept_Rate<0.898587048] yes=5,no=6,missing=5
			5:[Contributions<22] yes=7,no=8,missing=7
				7:[Churn_Average<146.068573] yes=11,no=12,missing=11
					11:[Mergeable<1] yes=19,no=20,missing=19
						19:leaf=0.0709649846
						20:leaf=-0.219041646
					12:[Project_Accept_Rate<0.595568299] yes=21,no=22,missing=21
						21:leaf=-0.141142249
						22:leaf=0.0191408731
				8:[User_Accept_Rate<0.0808823556] yes=13,no=14,missing=13
					13:[Closed_Num<2] yes=23,no=24,missing=23
						23:leaf=0.0421734154
						24:leaf=-0.133698419
					14:[Language<7] yes=25,no=26,missing=25
						25:leaf=0.109590657
						26:leaf=-0.0973648056
			6:[Wait_Time<0.00222800928] yes=9,no=10,missing=9
				9:[Closed_Num_Rate<0.0887482464] yes=15,no=16,missing=15
					15:[Commits_PR<8] yes=27,no=28,missing=27
						27:leaf=0.136744261
						28:leaf=-0.130953386
					16:[Open_Issues<350] yes=29,no=30,missing=29
						29:leaf=0.0801869631
						30:leaf=-0.264699936
				10:[Deletions<747] yes=17,no=18,missing=17
					17:[Mergeable<1] yes=31,no=32,missing=31
						31:leaf=0.152401417
						32:leaf=-0.136125565
					18:[Closed_Num_Rate<0.0957961306] yes=33,no=34,missing=33
						33:leaf=0.114354871
						34:leaf=-0.325109661
		4:leaf=-0.158038333
	2:leaf=-0.158484265
booster[29]:
0:[Participants_Count<1] yes=1,no=2,missing=1
	1:[first_response<1] yes=3,no=4,missing=3
		3:[Project_Accept_Rate<0.898801386] yes=5,no=6,missing=5
			5:[Commits_PR<3] yes=7,no=8,missing=7
				7:[Files_Changed<1] yes=11,no=12,missing=11
					11:[Wait_Time<0.0435532406] yes=19,no=20,missing=19
						19:leaf=0.138352394
						20:leaf=0.0312410276
					12:[Wait_Time<5.7649765] yes=21,no=22,missing=21
						21:leaf=-0.0250077955
						22:leaf=0.109105669
				8:[Wait_Time<0.00557870371] yes=13,no=14,missing=13
					13:[Contributions<2335] yes=23,no=24,missing=23
						23:leaf=0.270390183
						24:leaf=0.00170647691
					14:[Project_Age<181.927719] yes=25,no=26,missing=25
						25:leaf=-0.0589684732
						26:leaf=0.124094374
			6:[Wait_Time<0.00222800928] yes=9,no=10,missing=9
				9:[Closed_Num_Rate<0.0887482464] yes=15,no=16,missing=15
					15:[Commits_PR<3] yes=27,no=28,missing=27
						27:leaf=-0.0858246461
						28:leaf=0.176917642
					16:[Open_Issues<89] yes=29,no=30,missing=29
						29:leaf=-0.00289802719
						30:leaf=0.442656666
				10:[Deletions<747] yes=17,no=18,missing=17
					17:[Following<44] yes=31,no=32,missing=31
						31:leaf=-0.113586672
						32:leaf=-0.0214985497
					18:[Closed_Num_Rate<0.0957961306] yes=33,no=34,missing=33
						33:leaf=-0.0379291773
						34:leaf=0.625902236
		4:leaf=-0.162581623
	2:leaf=-0.158484265
booster[30]:
0:[Participants_Count<1] yes=1,no=2,missing=1
	1:[first_response<1] yes=3,no=4,missing=3
		3:leaf=-0.157128066
		4:[latency_after_first_response<160.933334] yes=7,no=8,missing=7
			7:[Commits_Average<2.4024148] yes=13,no=14,missing=13
				13:[Commits_PR<28] yes=25,no=26,missing=25
					25:[Churn_Average<166.282532] yes=49,no=50,missing=49
						49:leaf=0.152402163
						50:leaf=0.0817966759
					26:[Merge_Latency<4.06957579] yes=51,no=52,missing=51
						51:leaf=0.0564060099
						52:leaf=-0.210139573
				14:[Contributions<924] yes=27,no=28,missing=27
					27:[Project_Accept_Rate<0.364265144] yes=53,no=54,missing=53
						53:leaf=0.0795753077
						54:leaf=-0.107491687
					28:[Commits_Average<2.43831205] yes=55,no=56,missing=55
						55:leaf=-0.0800946653
						56:leaf=0.147056803
			8:[Wait_Time<0.0122280093] yes=15,no=16,missing=15
				15:[Project_Age<273.225708] yes=29,no=30,missing=29
					29:[Commits_PR<64] yes=57,no=58,missing=57
						57:leaf=-0.0325848013
						58:leaf=0.096591644
					30:leaf=-0.157637313
				16:[Project_Accept_Rate<0.475642592] yes=31,no=32,missing=31
					31:[Close_Latency<4.09770203] yes=59,no=60,missing=59
						59:leaf=0.0350237228
						60:leaf=-0.0738843977
					32:[Followers<37] yes=61,no=62,missing=61
						61:leaf=0.0114291711
						62:leaf=0.129788771
	2:[Project_Accept_Rate<0.698091686] yes=5,no=6,missing=5
		5:[latency_after_first_response<-0.00833333377] yes=9,no=10,missing=9
			9:[Wednesday<8.91346169] yes=17,no=18,missing=17
				17:[Churn_Average<189.325439] yes=33,no=34,missing=33
					33:[Deletions_Per_Week<-2739.59424] yes=63,no=64,missing=63
						63:leaf=0.178285569
						64:leaf=0.0729984492
					34:[latency_after_first_response<-0.175000012] yes=65,no=66,missing=65
						65:leaf=0.0226846691
						66:leaf=0.144916385
				18:[comments_reviews_words_count<4] yes=35,no=36,missing=35
					35:[Close_Latency<20.3421421] yes=67,no=68,missing=67
						67:leaf=0.172517329
						68:leaf=-0.0971911475
					36:[Project_Accept_Rate<0.491457641] yes=69,no=70,missing=69
						69:leaf=-0.0551993139
						70:leaf=0.0761127174
			10:[latency_after_first_response<0.0250000022] yes=19,no=20,missing=19
				19:[Project_Accept_Rate<0.512908101] yes=37,no=38,missing=37
					37:[Files_Changed<747] yes=71,no=72,missing=71
						71:leaf=-0.165431306
						72:leaf=0.0602189414
					38:[User_Accept_Rate<0.752551317] yes=73,no=74,missing=73
						73:leaf=-0.208923563
						74:leaf=-0.310343564
				20:[Wednesday<3.18269253] yes=39,no=40,missing=39
					39:[Close_Latency<39.462265] yes=75,no=76,missing=75
						75:leaf=-0.074741073
						76:leaf=0.102991603
					40:[Assignees_Count<1] yes=77,no=78,missing=77
						77:leaf=0.0325383097
						78:leaf=0.0911092088
		6:[comments_reviews_words_count<27] yes=11,no=12,missing=11
			11:[Churn_Average<4953.35352] yes=21,no=22,missing=21
				21:[Commits_PR<9] yes=41,no=42,missing=41
					41:[comments_reviews_words_count<3] yes=79,no=80,missing=79
						79:leaf=0.162832916
						80:leaf=0.120899312
					42:[Wait_Time<0.0121180555] yes=81,no=82,missing=81
						81:leaf=-0.208651766
						82:leaf=0.0587132126
				22:[Contributions<15] yes=43,no=44,missing=43
					43:[latency_after_first_response<0.975000024] yes=83,no=84,missing=83
						83:leaf=0.0380232707
						84:leaf=-0.191940174
					44:[Intra_Branch<1] yes=85,no=86,missing=85
						85:leaf=0.141569242
						86:leaf=-0.192625627
			12:[latency_after_first_response<79920.7578] yes=23,no=24,missing=23
				23:[Wait_Time<0.030156251] yes=45,no=46,missing=45
					45:[Comments_Per_Closed_PR<7.16786098] yes=87,no=88,missing=87
						87:leaf=0.0458221883
						88:leaf=-0.171751663
					46:[Label_Count<4] yes=89,no=90,missing=89
						89:leaf=0.0576146394
						90:leaf=0.110410415
				24:[Comments_Count<25] yes=47,no=48,missing=47
					47:[Comments_Per_Merged_PR<2.99621868] yes=91,no=92,missing=91
						91:leaf=0.00208492181
						92:leaf=-0.0720518008
					48:[Wait_Time<190.848862] yes=93,no=94,missing=93
						93:leaf=0.0885614604
						94:leaf=-0.0622268654
booster[31]:
0:[comments_reviews_words_count<2] yes=1,no=2,missing=1
	1:[first_response<1] yes=3,no=4,missing=3
		3:[Comments_Count<1] yes=7,no=8,missing=7
			7:leaf=-0.157219738
			8:[Language<2] yes=15,no=16,missing=15
				15:[Wednesday<35.865387] yes=29,no=30,missing=29
					29:[Wait_Time<0.000555555569] yes=57,no=58,missing=57
						57:leaf=0.178142563
						58:leaf=-0.146638051
					30:[X1_4<-15.7099419] yes=59,no=60,missing=59
						59:leaf=0.417056799
						60:leaf=-0.133215129
				16:[Closed_Num_Rate<0.302830935] yes=31,no=32,missing=31
					31:[Comments_Per_Closed_PR<7.01848602] yes=61,no=62,missing=61
						61:leaf=-0.0780160129
						62:leaf=0.159991309
					32:[Watchers<1254] yes=63,no=64,missing=63
						63:leaf=0.0267343763
						64:leaf=0.158163831
		4:[Comments_Count<1] yes=9,no=10,missing=9
			9:[Wait_Time<0.00862268545] yes=17,no=18,missing=17
				17:[Comments_Per_Merged_PR<0.84520328] yes=33,no=34,missing=33
					33:[Project_Accept_Rate<0.252591699] yes=65,no=66,missing=65
						65:leaf=0.177168176
						66:leaf=-0.172663271
					34:[Contributions<935] yes=67,no=68,missing=67
						67:leaf=0.209715962
						68:leaf=0.0401598848
				18:[latency_after_first_response<3.23333335] yes=35,no=36,missing=35
					35:[Accept_Num<9] yes=69,no=70,missing=69
						69:leaf=0.0394592434
						70:leaf=-0.125405014
					36:[Merge_Latency<3.03691101] yes=71,no=72,missing=71
						71:leaf=0.04261484
						72:leaf=0.198648214
			10:[Project_Accept_Rate<0.660717607] yes=19,no=20,missing=19
				19:[latency_after_first_response<-0.0250000022] yes=37,no=38,missing=37
					37:[Project_Accept_Rate<0.202346444] yes=73,no=74,missing=73
						73:leaf=0.120309308
						74:leaf=-0.101448826
					38:[latency_after_first_response<0.0250000022] yes=75,no=76,missing=75
						75:leaf=0.239332587
						76:leaf=-0.0340856574
				20:[Sunday<18.4326935] yes=39,no=40,missing=39
					39:[Wait_Time<20.0396881] yes=77,no=78,missing=77
						77:leaf=-0.141131788
						78:leaf=0.105404504
					40:[latency_after_first_response<-0.216666669] yes=79,no=80,missing=79
						79:leaf=0.310927093
						80:leaf=-0.0318381898
	2:[Files_Changed<1] yes=5,no=6,missing=5
		5:[latency_after_first_response<-0.00833333377] yes=11,no=12,missing=11
			11:[Language<5] yes=21,no=22,missing=21
				21:[Forks_Count<976] yes=41,no=42,missing=41
					41:[latency_after_first_response<-0.258333325] yes=81,no=82,missing=81
						81:leaf=0.00604179269
						82:leaf=-0.123703897
					42:[Accept_Num<19] yes=83,no=84,missing=83
						83:leaf=0.127718255
						84:leaf=-0.0343947783
				22:[latency_after_first_response<-4.14166641] yes=43,no=44,missing=43
					43:[Deletions_Per_Week<-7887.22021] yes=85,no=86,missing=85
						85:leaf=0.330928445
						86:leaf=-0.0083131846
					44:[latency_after_first_response<-0.0250000022] yes=87,no=88,missing=87
						87:leaf=-0.159846589
						88:leaf=0.182984918
			12:[latency_after_first_response<0.0250000022] yes=23,no=24,missing=23
				23:[Project_Accept_Rate<0.612398505] yes=45,no=46,missing=45
					45:[Contributions<49] yes=89,no=90,missing=89
						89:leaf=0.18700105
						90:leaf=0.236447975
					46:[Contributions<31] yes=91,no=92,missing=91
						91:leaf=0.243448973
						92:leaf=0.366085559
				24:[latency_after_first_response<0.224999994] yes=47,no=48,missing=47
					47:[Project_Accept_Rate<0.488780499] yes=93,no=94,missing=93
						93:leaf=0.129728511
						94:leaf=-0.115985893
					48:[Wait_Time<0.0126041658] yes=95,no=96,missing=95
						95:leaf=0.223768041
						96:leaf=0.0825811848
		6:[Project_Accept_Rate<0.464039624] yes=13,no=14,missing=13
			13:[Comments_Count<1] yes=25,no=26,missing=25
				25:[Open_Issues<3] yes=49,no=50,missing=49
					49:[Forks_Count<3698] yes=97,no=98,missing=97
						97:leaf=-0.0122116581
						98:leaf=-0.193581253
					50:[Following<3] yes=99,no=100,missing=99
						99:leaf=0.00151644566
						100:leaf=0.158966929
				26:[Workload<105] yes=51,no=52,missing=51
					51:[Forks_Count<7531] yes=101,no=102,missing=101
						101:leaf=0.0961765274
						102:leaf=-0.0285148807
					52:[Project_Accept_Rate<0.297204196] yes=103,no=104,missing=103
						103:leaf=0.145153373
						104:leaf=-0.0304317251
			14:[Mergeable<1] yes=27,no=28,missing=27
				27:[Commits_PR<9] yes=53,no=54,missing=53
					53:[Wait_Time<20.8137493] yes=105,no=106,missing=105
						105:leaf=-0.00493201707
						106:leaf=0.0547054298
					54:[Wait_Time<0.0230671279] yes=107,no=108,missing=107
						107:leaf=0.305805683
						108:leaf=0.0814475119
				28:[Wait_Time<87.9334106] yes=55,no=56,missing=55
					55:leaf=0.214463875
					56:leaf=0.190296814
booster[32]:
0:[Participants_Count<1] yes=1,no=2,missing=1
	1:[first_response<1] yes=3,no=4,missing=3
		3:[Project_Accept_Rate<0.898801386] yes=5,no=6,missing=5
			5:[User_Accept_Rate<0.543156624] yes=7,no=8,missing=7
				7:[Comments_Per_Merged_PR<1.99298263] yes=11,no=12,missing=11
					11:[Contributions<1493] yes=19,no=20,missing=19
						19:leaf=0.0578353629
						20:leaf=-0.115255289
					12:[Team_Size<26] yes=21,no=22,missing=21
						21:leaf=-0.0594276451
						22:leaf=0.0504422002
				8:[Commits_PR<3] yes=13,no=14,missing=13
					13:[Wait_Time<53.7993011] yes=23,no=24,missing=23
						23:leaf=0.0959404036
						24:leaf=-0.173135251
					14:[Contributions<79] yes=25,no=26,missing=25
						25:leaf=-0.121908627
						26:leaf=0.0242845882
			6:[Wait_Time<0.00222800928] yes=9,no=10,missing=9
				9:[Followers<45] yes=15,no=16,missing=15
					15:[Open_Issues<344] yes=27,no=28,missing=27
						27:leaf=0.0829053074
						28:leaf=-0.120036431
					16:[Commits_PR<30] yes=29,no=30,missing=29
						29:leaf=0.139207914
						30:leaf=-0.208683327
				10:[Wait_Time<9.40318298] yes=17,no=18,missing=17
					17:[X1_2<3.30939579] yes=31,no=32,missing=31
						31:leaf=0.141961902
						32:leaf=-0.120473318
					18:[Merge_Latency<0.79756856] yes=33,no=34,missing=33
						33:leaf=-0.237719163
						34:leaf=0.151067719
		4:leaf=-0.156440958
	2:leaf=-0.156903476
booster[33]:
0:[Participants_Count<1] yes=1,no=2,missing=1
	1:[first_response<1] yes=3,no=4,missing=3
		3:[User_Accept_Rate<0.701057017] yes=5,no=6,missing=5
			5:[Wait_Time<0.010920139] yes=7,no=8,missing=7
				7:[Comments_Per_Merged_PR<1.32760274] yes=11,no=12,missing=11
					11:[Closed_Num_Rate<0.402127683] yes=19,no=20,missing=19
						19:leaf=-0.00878327247
						20:leaf=0.120363094
					12:[Watchers<2031] yes=21,no=22,missing=21
						21:leaf=0.180131525
						22:leaf=0.0416499674
				8:[Comments_Per_Merged_PR<2.10791063] yes=13,no=14,missing=13
					13:[Team_Size<24] yes=23,no=24,missing=23
						23:leaf=-0.0633536577
						24:leaf=0.0302017424
					14:[Team_Size<26] yes=25,no=26,missing=25
						25:leaf=0.130382136
						26:leaf=0.00728510506
			6:[Churn_Average<207.696503] yes=9,no=10,missing=9
				9:[Saturday<3.90384626] yes=15,no=16,missing=15
					15:[Workload<121] yes=27,no=28,missing=27
						27:leaf=-0.0664600804
						28:leaf=0.120580412
					16:[Wait_Time<6.34918976] yes=29,no=30,missing=29
						29:leaf=-0.0971946791
						30:leaf=0.0495916419
				10:[Closed_Num<83] yes=17,no=18,missing=17
					17:[Watchers<1021] yes=31,no=32,missing=31
						31:leaf=-0.0394227393
						32:leaf=0.0797332823
					18:[Commits_Average<1.38702452] yes=33,no=34,missing=33
						33:leaf=0.372248739
						34:leaf=0.0870402455
		4:leaf=-0.160076007
	2:leaf=-0.156903476
booster[34]:
0:[Participants_Count<1] yes=1,no=2,missing=1
	1:[first_response<1] yes=3,no=4,missing=3
		3:leaf=-0.155648232
		4:[Project_Accept_Rate<0.499621242] yes=7,no=8,missing=7
			7:[latency_after_first_response<1806.8584] yes=13,no=14,missing=13
				13:[Commits_Average<1.81273007] yes=25,no=26,missing=25
